{"n_estimators": 150, "n_features": 320, "trees": [{"node_count": 97, "children_left": [1, 2, 3, 4, 5, -1, -1, 8, 9, 10, 11, 12, 13, -1, -1, -1, -1, -1, -1, -1, 21, 22, 23, 24, 25, 26, 27, -1, -1, -1, -1, -1, 33, 34, 35, 36, -1, -1, -1, -1, -1, -1, -1, 44, 45, 46, 47, 48, 49, 50, 51, -1, -1, -1, 55, 56, -1, -1, -1, -1, -1, -1, -1, 64, 65, -1, -1, 68, 69, -1, -1, -1, 73, 74, 75, 76, -1, -1, -1, -1, 81, 82, 83, 84, 85, 86, 87, 88, -1, -1, -1, -1, -1, -1, -1, -1, -1], "children_right": [72, 43, 20, 7, 6, -1, -1, 19, 18, 17, 16, 15, 14, -1, -1, -1, -1, -1, -1, -1, 42, 41, 32, 31, 30, 29, 28, -1, -1, -1, -1, -1, 40, 39, 38, 37, -1, -1, -1, -1, -1, -1, -1, 63, 62, 61, 60, 59, 54, 53, 52, -1, -1, -1, 58, 57, -1, -1, -1, -1, -1, -1, -1, 67, 66, -1, -1, 71, 70, -1, -1, -1, 80, 79, 78, 77, -1, -1, -1, -1, 96, 95, 94, 93, 92, 91, 90, 89, -1, -1, -1, -1, -1, -1, -1, -1, -1], "feature": [301, 305, 310, 301, 208, -2, -2, 57, 275, 109, 217, 173, 205, -2, -2, -2, -2, -2, -2, -2, 136, 123, 303, 311, 124, 179, 257, -2, -2, -2, -2, -2, 114, 2, 61, 165, -2, -2, -2, -2, -2, -2, -2, 314, 242, 66, 103, 19, 317, 85, 201, -2, -2, -2, 307, 303, -2, -2, -2, -2, -2, -2, -2, 309, 215, -2, -2, 15, 103, -2, -2, -2, 307, 15, 178, 141, -2, -2, -2, -2, 254, 243, 158, 301, 159, 182, 201, 310, -2, -2, -2, -2, -2, -2, -2, -2, -2], "threshold": [3.5, 0.5, 0.5, 1.5, 0.5, -2.0, -2.0, 0.5, 0.5, 0.5, 1.5, 0.5, 0.5, -2.0, -2.0, -2.0, -2.0, -2.0, -2.0, -2.0, 1.5, 1.5, 3.5, 0.5, 1.5, 0.5, 0.5, -2.0, -2.0, -2.0, -2.0, -2.0, 0.5, 0.5, 0.5, 0.5, -2.0, -2.0, -2.0, -2.0, -2.0, -2.0, -2.0, 0.5, 0.5, 1.5, 2.5, 0.5, 0.5, 0.5, 0.5, -2.0, -2.0, -2.0, 0.5, 4.5, -2.0, -2.0, -2.0, -2.0, -2.0, -2.0, -2.0, 0.5, 0.5, -2.0, -2.0, 0.5, 0.5, -2.0, -2.0, -2.0, 0.5, 0.5, 0.5, 0.5, -2.0, -2.0, -2.0, -2.0, 0.5, 0.5, 0.5, 4.5, 0.5, 0.5, 3.5, 0.5, -2.0, -2.0, -2.0, -2.0, -2.0, -2.0, -2.0, -2.0, -2.0], "value": [[0.3211805555555556, 0.3645833333333333, 0.3142361111111111], [0.266384778012685, 0.4186046511627907, 0.3150105708245243], [0.2825112107623318, 0.29596412556053814, 0.42152466367713004], [0.10784313725490197, 0.37254901960784315, 0.5196078431372549], [0.0, 0.2692307692307692, 0.7307692307692307], [0.0, 0.22727272727272727, 0.7727272727272727], [0.0, 0.5, 0.5], [0.14473684210526316, 0.40789473684210525, 0.4473684210526316], [0.12162162162162163, 0.4189189189189189, 0.4594594594594595], [0.14285714285714285, 0.3492063492063492, 0.5079365079365079], [0.07547169811320754, 0.41509433962264153, 0.5094339622641509], [0.08163265306122448, 0.4489795918367347, 0.46938775510204084], [0.022222222222222223, 0.4888888888888889, 0.4888888888888889], [0.034482758620689655, 0.3448275862068966, 0.6206896551724138], [0.0, 0.75, 0.25], [0.75, 0.0, 0.25], [0.0, 0.0, 1.0], [0.5, 0.0, 0.5], [0.0, 0.8181818181818182, 0.18181818181818182], [1.0, 0.0, 0.0], [0.4297520661157025, 0.23140495867768596, 0.33884297520661155], [0.39285714285714285, 0.25, 0.35714285714285715], [0.4095238095238095, 0.26666666666666666, 0.3238095238095238], [0.18181818181818182, 0.38181818181818183, 0.43636363636363634], [0.04878048780487805, 0.4878048780487805, 0.4634146341463415], [0.05405405405405406, 0.5405405405405406, 0.40540540540540543], [0.058823529411764705, 0.5, 0.4411764705882353], [0.06666666666666667, 0.43333333333333335, 0.5], [0.0, 1.0, 0.0], [0.0, 1.0, 0.0], [0.0, 0.0, 1.0], [0.5714285714285714, 0.07142857142857142, 0.35714285714285715], [0.66, 0.14, 0.2], [0.75, 0.15, 0.1], [0.8148148148148148, 0.18518518518518517, 0.0], [0.9130434782608695, 0.08695652173913043, 0.0], [1.0, 0.0, 0.0], [0.75, 0.25, 0.0], [0.25, 0.75, 0.0], [0.6153846153846154, 0.07692307692307693, 0.3076923076923077], [0.3, 0.1, 0.6], [0.14285714285714285, 0.0, 0.8571428571428571], [0.8888888888888888, 0.0, 0.1111111111111111], [0.252, 0.528, 0.22], [0.13068181818181818, 0.6420454545454546, 0.22727272727272727], [0.11538461538461539, 0.6730769230769231, 0.21153846153846154], [0.1038961038961039, 0.6818181818181818, 0.21428571428571427], [0.11594202898550725, 0.644927536231884, 0.2391304347826087], [0.1037037037037037, 0.6592592592592592, 0.23703703703703705], [0.09876543209876543, 0.5679012345679012, 0.3333333333333333], [0.06756756756756757, 0.6081081081081081, 0.32432432432432434], [0.16, 0.4, 0.44], [0.02040816326530612, 0.7142857142857143, 0.2653061224489796], [0.42857142857142855, 0.14285714285714285, 0.42857142857142855], [0.1111111111111111, 0.7962962962962963, 0.09259259259259259], [0.0, 0.8974358974358975, 0.10256410256410256], [0.0, 0.9428571428571428, 0.05714285714285714], [0.0, 0.5, 0.5], [0.4, 0.5333333333333333, 0.06666666666666667], [0.6666666666666666, 0.0, 0.3333333333333333], [0.0, 1.0, 0.0], [1.0, 0.0, 0.0], [0.25, 0.4, 0.35], [0.5405405405405406, 0.25675675675675674, 0.20270270270270271], [0.35294117647058826, 0.4411764705882353, 0.20588235294117646], [0.47368421052631576, 0.21052631578947367, 0.3157894736842105], [0.2, 0.7333333333333333, 0.06666666666666667], [0.7, 0.1, 0.2], [0.75, 0.1111111111111111, 0.1388888888888889], [0.25, 0.75, 0.0], [0.8125, 0.03125, 0.15625], [0.25, 0.0, 0.75], [0.5728155339805825, 0.11650485436893204, 0.3106796116504854], [0.18181818181818182, 0.21212121212121213, 0.6060606060606061], [0.13333333333333333, 0.2, 0.6666666666666666], [0.18181818181818182, 0.2727272727272727, 0.5454545454545454], [0.15, 0.3, 0.55], [0.5, 0.0, 0.5], [0.0, 0.0, 1.0], [0.6666666666666666, 0.3333333333333333, 0.0], [0.7571428571428571, 0.07142857142857142, 0.17142857142857143], [0.7846153846153846, 0.03076923076923077, 0.18461538461538463], [0.7627118644067796, 0.03389830508474576, 0.2033898305084746], [0.7894736842105263, 0.03508771929824561, 0.17543859649122806], [0.8269230769230769, 0.019230769230769232, 0.15384615384615385], [0.8837209302325582, 0.023255813953488372, 0.09302325581395349], [0.9024390243902439, 0.0, 0.0975609756097561], [0.972972972972973, 0.0, 0.02702702702702703], [1.0, 0.0, 0.0], [0.9473684210526315, 0.0, 0.05263157894736842], [0.25, 0.0, 0.75], [0.5, 0.5, 0.0], [0.5555555555555556, 0.0, 0.4444444444444444], [0.4, 0.2, 0.4], [0.0, 0.0, 1.0], [1.0, 0.0, 0.0], [0.4, 0.6, 0.0]]}, {"node_count": 81, "children_left": [1, 2, 3, 4, 5, 6, 7, 8, 9, 10, -1, -1, -1, -1, -1, -1, -1, 18, 19, 20, 21, 22, 23, -1, -1, -1, -1, -1, 29, 30, 31, 32, -1, -1, -1, -1, 37, -1, -1, -1, -1, -1, 43, 44, 45, 46, 47, 48, 49, 50, -1, -1, -1, -1, -1, -1, -1, 58, -1, -1, 61, 62, 63, 64, 65, 66, 67, 68, -1, -1, -1, -1, -1, 74, -1, 76, -1, -1, -1, -1, -1], "children_right": [42, 41, 40, 17, 16, 15, 14, 13, 12, 11, -1, -1, -1, -1, -1, -1, -1, 39, 28, 27, 26, 25, 24, -1, -1, -1, -1, -1, 36, 35, 34, 33, -1, -1, -1, -1, 38, -1, -1, -1, -1, -1, 60, 57, 56, 55, 54, 53, 52, 51, -1, -1, -1, -1, -1, -1, -1, 59, -1, -1, 80, 79, 78, 73, 72, 71, 70, 69, -1, -1, -1, -1, -1, 75, -1, 77, -1, -1, -1, -1, -1], "feature": [300, 34, 103, 309, 282, 66, 241, 195, 79, 157, -2, -2, -2, -2, -2, -2, -2, 206, 102, 15, 33, 305, 193, -2, -2, -2, -2, -2, 209, 211, 111, 182, -2, -2, -2, -2, 221, -2, -2, -2, -2, -2, 312, 314, 196, 64, 83, 194, 130, 115, -2, -2, -2, -2, -2, -2, -2, 100, -2, -2, 34, 318, 164, 111, 52, 128, 46, 304, -2, -2, -2, -2, -2, 12, -2, 303, -2, -2, -2, -2, -2], "threshold": [3.5, 0.5, 5.5, 0.5, 0.5, 0.5, 0.5, 0.5, 0.5, 0.5, -2.0, -2.0, -2.0, -2.0, -2.0, -2.0, -2.0, 1.5, 0.5, 0.5, 0.5, 0.5, 0.5, -2.0, -2.0, -2.0, -2.0, -2.0, 0.5, 0.5, 1.5, 0.5, -2.0, -2.0, -2.0, -2.0, 0.5, -2.0, -2.0, -2.0, -2.0, -2.0, 0.5, 0.5, 0.5, 0.5, 0.5, 0.5, 0.5, 0.5, -2.0, -2.0, -2.0, -2.0, -2.0, -2.0, -2.0, 1.5, -2.0, -2.0, 0.5, 0.5, 0.5, 0.5, 0.5, 0.5, 0.5, 0.5, -2.0, -2.0, -2.0, -2.0, -2.0, 0.5, -2.0, 3.5, -2.0, -2.0, -2.0, -2.0, -2.0], "value": [[0.3298611111111111, 0.3368055555555556, 0.3333333333333333], [0.1726027397260274, 0.40273972602739727, 0.4246575342465753], [0.1749271137026239, 0.42857142857142855, 0.3965014577259475], [0.15522388059701492, 0.4388059701492537, 0.4059701492537313], [0.10101010101010101, 0.5, 0.398989898989899], [0.10362694300518134, 0.5129533678756477, 0.38341968911917096], [0.0782122905027933, 0.547486033519553, 0.3743016759776536], [0.08074534161490683, 0.5093167701863354, 0.40993788819875776], [0.08666666666666667, 0.5333333333333333, 0.38], [0.06896551724137931, 0.5379310344827586, 0.3931034482758621], [0.07246376811594203, 0.5144927536231884, 0.41304347826086957], [0.0, 1.0, 0.0], [0.6, 0.4, 0.0], [0.0, 0.18181818181818182, 0.8181818181818182], [0.05555555555555555, 0.8888888888888888, 0.05555555555555555], [0.42857142857142855, 0.07142857142857142, 0.5], [0.0, 0.0, 1.0], [0.23357664233576642, 0.35036496350364965, 0.41605839416058393], [0.1935483870967742, 0.3467741935483871, 0.4596774193548387], [0.13725490196078433, 0.2549019607843137, 0.6078431372549019], [0.13043478260869565, 0.1956521739130435, 0.6739130434782609], [0.13953488372093023, 0.13953488372093023, 0.7209302325581395], [0.03125, 0.0625, 0.90625], [0.0, 0.06896551724137931, 0.9310344827586207], [0.3333333333333333, 0.0, 0.6666666666666666], [0.45454545454545453, 0.36363636363636365, 0.18181818181818182], [0.0, 1.0, 0.0], [0.2, 0.8, 0.0], [0.2328767123287671, 0.410958904109589, 0.3561643835616438], [0.10416666666666667, 0.5, 0.3958333333333333], [0.14705882352941177, 0.38235294117647056, 0.47058823529411764], [0.15625, 0.34375, 0.5], [0.038461538461538464, 0.4230769230769231, 0.5384615384615384], [0.6666666666666666, 0.0, 0.3333333333333333], [0.0, 1.0, 0.0], [0.0, 0.7857142857142857, 0.21428571428571427], [0.48, 0.24, 0.28], [0.55, 0.3, 0.15], [0.2, 0.0, 0.8], [0.6153846153846154, 0.38461538461538464, 0.0], [1.0, 0.0, 0.0], [0.13636363636363635, 0.0, 0.8636363636363636], [0.6018957345971564, 0.22274881516587677, 0.17535545023696683], [0.45454545454545453, 0.36363636363636365, 0.18181818181818182], [0.30952380952380953, 0.5238095238095238, 0.16666666666666666], [0.2564102564102564, 0.5641025641025641, 0.1794871794871795], [0.18181818181818182, 0.6060606060606061, 0.21212121212121213], [0.10344827586206896, 0.6551724137931034, 0.2413793103448276], [0.038461538461538464, 0.6923076923076923, 0.2692307692307692], [0.0, 0.75, 0.25], [0.0, 0.8235294117647058, 0.17647058823529413], [0.0, 0.5714285714285714, 0.42857142857142855], [0.5, 0.0, 0.5], [0.6666666666666666, 0.3333333333333333, 0.0], [0.75, 0.25, 0.0], [0.6666666666666666, 0.3333333333333333, 0.0], [1.0, 0.0, 0.0], [0.7083333333333334, 0.08333333333333333, 0.20833333333333334], [0.4166666666666667, 0.16666666666666666, 0.4166666666666667], [1.0, 0.0, 0.0], [0.6689655172413793, 0.15862068965517243, 0.1724137931034483], [0.7209302325581395, 0.17829457364341086, 0.10077519379844961], [0.7739130434782608, 0.13043478260869565, 0.09565217391304348], [0.8018867924528302, 0.14150943396226415, 0.05660377358490566], [0.8983050847457628, 0.06779661016949153, 0.03389830508474576], [0.9122807017543859, 0.07017543859649122, 0.017543859649122806], [0.9565217391304348, 0.021739130434782608, 0.021739130434782608], [0.9743589743589743, 0.0, 0.02564102564102564], [1.0, 0.0, 0.0], [0.8333333333333334, 0.0, 0.16666666666666666], [0.8571428571428571, 0.14285714285714285, 0.0], [0.7272727272727273, 0.2727272727272727, 0.0], [0.5, 0.0, 0.5], [0.6808510638297872, 0.23404255319148937, 0.0851063829787234], [0.47368421052631576, 0.47368421052631576, 0.05263157894736842], [0.8214285714285714, 0.07142857142857142, 0.10714285714285714], [0.42857142857142855, 0.2857142857142857, 0.2857142857142857], [0.9523809523809523, 0.0, 0.047619047619047616], [0.4444444444444444, 0.0, 0.5555555555555556], [0.2857142857142857, 0.5714285714285714, 0.14285714285714285], [0.25, 0.0, 0.75]]}, {"node_count": 95, "children_left": [1, 2, 3, 4, 5, 6, 7, 8, 9, 10, -1, -1, -1, 14, -1, -1, 17, -1, -1, 20, 21, 22, 23, -1, -1, -1, 27, -1, -1, -1, -1, 32, 33, 34, 35, 36, -1, -1, -1, -1, -1, -1, 43, 44, 45, 46, 47, 48, -1, -1, -1, -1, -1, 54, 55, -1, -1, 58, 59, -1, 61, -1, -1, -1, -1, 66, 67, 68, 69, 70, 71, 72, 73, -1, -1, -1, -1, -1, -1, -1, -1, -1, 83, 84, 85, 86, -1, -1, -1, 90, 91, -1, -1, -1, -1], "children_right": [82, 65, 42, 31, 30, 19, 16, 13, 12, 11, -1, -1, -1, 15, -1, -1, 18, -1, -1, 29, 26, 25, 24, -1, -1, -1, 28, -1, -1, -1, -1, 41, 40, 39, 38, 37, -1, -1, -1, -1, -1, -1, 64, 53, 52, 51, 50, 49, -1, -1, -1, -1, -1, 57, 56, -1, -1, 63, 60, -1, 62, -1, -1, -1, -1, 81, 80, 79, 78, 77, 76, 75, 74, -1, -1, -1, -1, -1, -1, -1, -1, -1, 94, 89, 88, 87, -1, -1, -1, 93, 92, -1, -1, -1, -1], "feature": [264, 32, 3, 216, 154, 305, 126, 8, 114, 302, -2, -2, -2, 5, -2, -2, 204, -2, -2, 103, 105, 130, 221, -2, -2, -2, 316, -2, -2, -2, -2, 207, 104, 314, 214, 301, -2, -2, -2, -2, -2, -2, 205, 312, 231, 107, 217, 123, -2, -2, -2, -2, -2, 102, 301, -2, -2, 29, 200, -2, 149, -2, -2, -2, -2, 194, 308, 110, 4, 210, 204, 122, 310, -2, -2, -2, -2, -2, -2, -2, -2, -2, 129, 6, 182, 139, -2, -2, -2, 121, 149, -2, -2, -2, -2], "threshold": [0.5, 0.5, 0.5, 0.5, 0.5, 0.5, 0.5, 0.5, 0.5, 3.5, -2.0, -2.0, -2.0, 0.5, -2.0, -2.0, 0.5, -2.0, -2.0, 1.5, 0.5, 0.5, 0.5, -2.0, -2.0, -2.0, 0.5, -2.0, -2.0, -2.0, -2.0, 1.5, 2.5, 0.5, 0.5, 3.5, -2.0, -2.0, -2.0, -2.0, -2.0, -2.0, 1.5, 0.5, 0.5, 1.5, 1.5, 0.5, -2.0, -2.0, -2.0, -2.0, -2.0, 0.5, 3.5, -2.0, -2.0, 0.5, 0.5, -2.0, 0.5, -2.0, -2.0, -2.0, -2.0, 0.5, 0.5, 2.5, 0.5, 0.5, 0.5, 0.5, 0.5, -2.0, -2.0, -2.0, -2.0, -2.0, -2.0, -2.0, -2.0, -2.0, 0.5, 0.5, 0.5, 0.5, -2.0, -2.0, -2.0, 0.5, 0.5, -2.0, -2.0, -2.0, -2.0], "value": [[0.3628472222222222, 0.3125, 0.3246527777777778], [0.3248031496062992, 0.3346456692913386, 0.3405511811023622], [0.36626506024096384, 0.29397590361445786, 0.3397590361445783], [0.2727272727272727, 0.3490909090909091, 0.3781818181818182], [0.25, 0.33035714285714285, 0.41964285714285715], [0.21782178217821782, 0.33663366336633666, 0.44554455445544555], [0.2336448598130841, 0.1588785046728972, 0.6074766355140186], [0.12345679012345678, 0.1728395061728395, 0.7037037037037037], [0.16393442622950818, 0.13114754098360656, 0.7049180327868853], [0.21739130434782608, 0.15217391304347827, 0.6304347826086957], [0.14285714285714285, 0.16666666666666666, 0.6904761904761905], [1.0, 0.0, 0.0], [0.0, 0.06666666666666667, 0.9333333333333333], [0.0, 0.3, 0.7], [0.0, 1.0, 0.0], [0.0, 0.2222222222222222, 0.7777777777777778], [0.5769230769230769, 0.11538461538461539, 0.3076923076923077], [0.14285714285714285, 0.14285714285714285, 0.7142857142857143], [0.7368421052631579, 0.10526315789473684, 0.15789473684210525], [0.2, 0.5368421052631579, 0.2631578947368421], [0.14666666666666667, 0.6133333333333333, 0.24], [0.23809523809523808, 0.5238095238095238, 0.23809523809523808], [0.225, 0.55, 0.225], [0.25, 0.6111111111111112, 0.1388888888888889], [0.0, 0.0, 1.0], [0.5, 0.0, 0.5], [0.030303030303030304, 0.7272727272727273, 0.24242424242424243], [0.05, 0.55, 0.4], [0.0, 1.0, 0.0], [0.4, 0.25, 0.35], [0.5454545454545454, 0.2727272727272727, 0.18181818181818182], [0.37254901960784315, 0.43137254901960786, 0.19607843137254902], [0.3191489361702128, 0.46808510638297873, 0.2127659574468085], [0.2558139534883721, 0.5116279069767442, 0.23255813953488372], [0.1111111111111111, 0.6296296296296297, 0.25925925925925924], [0.08, 0.68, 0.24], [0.047619047619047616, 0.8095238095238095, 0.14285714285714285], [0.25, 0.0, 0.75], [0.5, 0.0, 0.5], [0.5, 0.3125, 0.1875], [1.0, 0.0, 0.0], [1.0, 0.0, 0.0], [0.55, 0.18571428571428572, 0.2642857142857143], [0.592, 0.136, 0.272], [0.24444444444444444, 0.26666666666666666, 0.4888888888888889], [0.3142857142857143, 0.08571428571428572, 0.6], [0.1724137931034483, 0.10344827586206896, 0.7241379310344828], [0.045454545454545456, 0.09090909090909091, 0.8636363636363636], [0.058823529411764705, 0.0, 0.9411764705882353], [0.0, 0.4, 0.6], [0.5714285714285714, 0.14285714285714285, 0.2857142857142857], [1.0, 0.0, 0.0], [0.0, 0.9, 0.1], [0.7875, 0.0625, 0.15], [0.47368421052631576, 0.21052631578947367, 0.3157894736842105], [0.2857142857142857, 0.2857142857142857, 0.42857142857142855], [1.0, 0.0, 0.0], [0.8852459016393442, 0.01639344262295082, 0.09836065573770492], [0.9433962264150944, 0.0, 0.05660377358490566], [0.8333333333333334, 0.0, 0.16666666666666666], [0.975609756097561, 0.0, 0.024390243902439025], [1.0, 0.0, 0.0], [0.9, 0.0, 0.1], [0.5, 0.125, 0.375], [0.2, 0.6, 0.2], [0.13978494623655913, 0.5161290322580645, 0.34408602150537637], [0.0963855421686747, 0.5783132530120482, 0.3253012048192771], [0.10294117647058823, 0.6470588235294118, 0.25], [0.05, 0.7333333333333333, 0.21666666666666667], [0.075, 0.625, 0.3], [0.027777777777777776, 0.6944444444444444, 0.2777777777777778], [0.04, 0.6, 0.36], [0.047619047619047616, 0.7142857142857143, 0.23809523809523808], [0.0, 0.7894736842105263, 0.21052631578947367], [0.5, 0.0, 0.5], [0.0, 0.0, 1.0], [0.0, 0.9090909090909091, 0.09090909090909091], [0.5, 0.0, 0.5], [0.0, 0.95, 0.05], [0.5, 0.0, 0.5], [0.06666666666666667, 0.26666666666666666, 0.6666666666666666], [0.5, 0.0, 0.5], [0.6470588235294118, 0.14705882352941177, 0.20588235294117646], [0.6825396825396826, 0.09523809523809523, 0.2222222222222222], [0.4642857142857143, 0.17857142857142858, 0.35714285714285715], [0.3684210526315789, 0.10526315789473684, 0.5263157894736842], [0.2, 0.13333333333333333, 0.6666666666666666], [1.0, 0.0, 0.0], [0.6666666666666666, 0.3333333333333333, 0.0], [0.8571428571428571, 0.02857142857142857, 0.11428571428571428], [0.9629629629629629, 0.037037037037037035, 0.0], [0.8571428571428571, 0.14285714285714285, 0.0], [1.0, 0.0, 0.0], [0.5, 0.0, 0.5], [0.2, 0.8, 0.0]]}, {"node_count": 75, "children_left": [1, 2, 3, 4, 5, 6, 7, 8, 9, 10, -1, -1, -1, 14, -1, -1, 17, -1, -1, -1, -1, -1, 23, -1, -1, -1, 27, 28, 29, 30, 31, 32, 33, 34, -1, -1, -1, -1, -1, -1, -1, 42, 43, 44, 45, 46, 47, 48, -1, -1, -1, -1, -1, -1, 55, 56, 57, -1, 59, 60, -1, -1, -1, -1, -1, -1, 67, 68, 69, 70, -1, -1, -1, -1, -1], "children_right": [26, 25, 22, 21, 20, 19, 16, 13, 12, 11, -1, -1, -1, 15, -1, -1, 18, -1, -1, -1, -1, -1, 24, -1, -1, -1, 66, 41, 40, 39, 38, 37, 36, 35, -1, -1, -1, -1, -1, -1, -1, 65, 54, 53, 52, 51, 50, 49, -1, -1, -1, -1, -1, -1, 64, 63, 58, -1, 62, 61, -1, -1, -1, -1, -1, -1, 74, 73, 72, 71, -1, -1, -1, -1, -1], "feature": [313, 134, 136, 22, 262, 138, 255, 35, 167, 310, -2, -2, -2, 177, -2, -2, 310, -2, -2, -2, -2, -2, 2, -2, -2, -2, 301, 307, 29, 0, 102, 251, 272, 101, -2, -2, -2, -2, -2, -2, -2, 35, 107, 110, 29, 106, 104, 30, -2, -2, -2, -2, -2, -2, 143, 155, 309, -2, 190, 231, -2, -2, -2, -2, -2, -2, 114, 107, 110, 12, -2, -2, -2, -2, -2], "threshold": [0.5, 0.5, 0.5, 1.5, 0.5, 0.5, 0.5, 0.5, 0.5, 0.5, -2.0, -2.0, -2.0, 0.5, -2.0, -2.0, 0.5, -2.0, -2.0, -2.0, -2.0, -2.0, 0.5, -2.0, -2.0, -2.0, 3.5, 0.5, 0.5, 1.5, 2.5, 0.5, 0.5, 1.5, -2.0, -2.0, -2.0, -2.0, -2.0, -2.0, -2.0, 1.5, 0.5, 1.5, 0.5, 1.5, 1.5, 0.5, -2.0, -2.0, -2.0, -2.0, -2.0, -2.0, 0.5, 0.5, 0.5, -2.0, 0.5, 0.5, -2.0, -2.0, -2.0, -2.0, -2.0, -2.0, 0.5, 1.5, 0.5, 0.5, -2.0, -2.0, -2.0, -2.0, -2.0], "value": [[0.3368055555555556, 0.3541666666666667, 0.3090277777777778], [0.2703583061889251, 0.46579804560260585, 0.26384364820846906], [0.27759197324414714, 0.4782608695652174, 0.24414715719063546], [0.25089605734767023, 0.4910394265232975, 0.25806451612903225], [0.23616236162361623, 0.5018450184501845, 0.26199261992619927], [0.2188679245283019, 0.5132075471698113, 0.2679245283018868], [0.1908713692946058, 0.5145228215767634, 0.2946058091286307], [0.12980769230769232, 0.5480769230769231, 0.32211538461538464], [0.13259668508287292, 0.5082872928176796, 0.35911602209944754], [0.1411042944785276, 0.4662576687116564, 0.39263803680981596], [0.08333333333333333, 0.5151515151515151, 0.4015151515151515], [0.3870967741935484, 0.25806451612903225, 0.3548387096774194], [0.05555555555555555, 0.8888888888888888, 0.05555555555555555], [0.1111111111111111, 0.8148148148148148, 0.07407407407407407], [0.12, 0.84, 0.04], [0.0, 0.5, 0.5], [0.5757575757575758, 0.30303030303030304, 0.12121212121212122], [0.0, 0.8181818181818182, 0.18181818181818182], [0.8636363636363636, 0.045454545454545456, 0.09090909090909091], [0.5, 0.5, 0.0], [1.0, 0.0, 0.0], [0.75, 0.125, 0.125], [0.65, 0.3, 0.05], [0.8461538461538461, 0.15384615384615385, 0.0], [0.2857142857142857, 0.5714285714285714, 0.14285714285714285], [0.0, 0.0, 1.0], [0.41263940520446096, 0.22676579925650558, 0.36059479553903345], [0.29069767441860467, 0.31976744186046513, 0.38953488372093026], [0.047619047619047616, 0.5079365079365079, 0.4444444444444444], [0.05357142857142857, 0.5714285714285714, 0.375], [0.046511627906976744, 0.6744186046511628, 0.27906976744186046], [0.0, 0.6756756756756757, 0.32432432432432434], [0.0, 0.7575757575757576, 0.24242424242424243], [0.0, 0.7241379310344828, 0.27586206896551724], [0.0, 0.8636363636363636, 0.13636363636363635], [0.0, 0.2857142857142857, 0.7142857142857143], [0.0, 1.0, 0.0], [0.0, 0.0, 1.0], [0.3333333333333333, 0.6666666666666666, 0.0], [0.07692307692307693, 0.23076923076923078, 0.6923076923076923], [0.0, 0.0, 1.0], [0.43119266055045874, 0.21100917431192662, 0.3577981651376147], [0.4563106796116505, 0.1650485436893204, 0.3786407766990291], [0.2549019607843137, 0.21568627450980393, 0.5294117647058824], [0.15555555555555556, 0.24444444444444444, 0.6], [0.17073170731707318, 0.2682926829268293, 0.5609756097560976], [0.16216216216216217, 0.21621621621621623, 0.6216216216216216], [0.11764705882352941, 0.20588235294117646, 0.6764705882352942], [0.14285714285714285, 0.25, 0.6071428571428571], [0.0, 0.0, 1.0], [0.6666666666666666, 0.3333333333333333, 0.0], [0.25, 0.75, 0.0], [0.0, 0.0, 1.0], [1.0, 0.0, 0.0], [0.6538461538461539, 0.11538461538461539, 0.23076923076923078], [0.5609756097560976, 0.14634146341463414, 0.2926829268292683], [0.6764705882352942, 0.029411764705882353, 0.29411764705882354], [0.2857142857142857, 0.14285714285714285, 0.5714285714285714], [0.7777777777777778, 0.0, 0.2222222222222222], [0.9047619047619048, 0.0, 0.09523809523809523], [1.0, 0.0, 0.0], [0.7142857142857143, 0.0, 0.2857142857142857], [0.3333333333333333, 0.0, 0.6666666666666666], [0.0, 0.7142857142857143, 0.2857142857142857], [1.0, 0.0, 0.0], [0.0, 1.0, 0.0], [0.6288659793814433, 0.061855670103092786, 0.30927835051546393], [0.7083333333333334, 0.05555555555555555, 0.2361111111111111], [0.631578947368421, 0.07017543859649122, 0.2982456140350877], [0.45454545454545453, 0.12121212121212122, 0.42424242424242425], [0.5882352941176471, 0.23529411764705882, 0.17647058823529413], [0.3125, 0.0, 0.6875], [0.875, 0.0, 0.125], [1.0, 0.0, 0.0], [0.4, 0.08, 0.52]]}, {"node_count": 93, "children_left": [1, 2, 3, 4, 5, 6, 7, 8, 9, 10, -1, -1, -1, -1, -1, 16, 17, 18, -1, -1, -1, -1, 23, 24, 25, 26, 27, -1, -1, -1, -1, -1, -1, 34, 35, 36, -1, -1, -1, -1, 41, 42, 43, 44, 45, 46, 47, -1, -1, -1, -1, -1, -1, 54, 55, 56, -1, -1, 59, 60, 61, -1, -1, -1, -1, -1, 67, 68, -1, -1, -1, 72, 73, -1, -1, -1, 77, 78, 79, -1, -1, -1, 83, 84, 85, 86, 87, -1, -1, -1, -1, -1, -1], "children_right": [76, 71, 40, 33, 22, 15, 14, 13, 12, 11, -1, -1, -1, -1, -1, 21, 20, 19, -1, -1, -1, -1, 32, 31, 30, 29, 28, -1, -1, -1, -1, -1, -1, 39, 38, 37, -1, -1, -1, -1, 66, 53, 52, 51, 50, 49, 48, -1, -1, -1, -1, -1, -1, 65, 58, 57, -1, -1, 64, 63, 62, -1, -1, -1, -1, -1, 70, 69, -1, -1, -1, 75, 74, -1, -1, -1, 82, 81, 80, -1, -1, -1, 92, 91, 90, 89, 88, -1, -1, -1, -1, -1, -1], "feature": [15, 117, 307, 311, 305, 310, 208, 130, 306, 33, -2, -2, -2, -2, -2, 190, 279, 303, -2, -2, -2, -2, 18, 68, 45, 242, 215, -2, -2, -2, -2, -2, -2, 184, 200, 144, -2, -2, -2, -2, 107, 311, 28, 233, 203, 236, 127, -2, -2, -2, -2, -2, -2, 159, 102, 203, -2, -2, 201, 193, 66, -2, -2, -2, -2, -2, 143, 107, -2, -2, -2, 205, 272, -2, -2, -2, 307, 1, 108, -2, -2, -2, 102, 135, 248, 280, 304, -2, -2, -2, -2, -2, -2], "threshold": [0.5, 0.5, 0.5, 0.5, 0.5, 0.5, 0.5, 0.5, 0.5, 0.5, -2.0, -2.0, -2.0, -2.0, -2.0, 0.5, 0.5, 4.5, -2.0, -2.0, -2.0, -2.0, 0.5, 0.5, 0.5, 0.5, 0.5, -2.0, -2.0, -2.0, -2.0, -2.0, -2.0, 0.5, 1.5, 0.5, -2.0, -2.0, -2.0, -2.0, 2.5, 0.5, 0.5, 0.5, 1.5, 0.5, 1.5, -2.0, -2.0, -2.0, -2.0, -2.0, -2.0, 0.5, 0.5, 0.5, -2.0, -2.0, 2.5, 0.5, 0.5, -2.0, -2.0, -2.0, -2.0, -2.0, 0.5, 4.5, -2.0, -2.0, -2.0, 1.5, 0.5, -2.0, -2.0, -2.0, 0.5, 0.5, 0.5, -2.0, -2.0, -2.0, 4.5, 1.5, 0.5, 0.5, 0.5, -2.0, -2.0, -2.0, -2.0, -2.0, -2.0], "value": [[0.3003472222222222, 0.3524305555555556, 0.3472222222222222], [0.2773109243697479, 0.3319327731092437, 0.3907563025210084], [0.25892857142857145, 0.34598214285714285, 0.3950892857142857], [0.059113300492610835, 0.45320197044334976, 0.4876847290640394], [0.03773584905660377, 0.5283018867924528, 0.4339622641509434], [0.058823529411764705, 0.3411764705882353, 0.6], [0.0, 0.2708333333333333, 0.7291666666666666], [0.0, 0.18421052631578946, 0.8157894736842105], [0.0, 0.21875, 0.78125], [0.0, 0.16666666666666666, 0.8333333333333334], [0.0, 0.11538461538461539, 0.8846153846153846], [0.0, 0.5, 0.5], [0.0, 1.0, 0.0], [0.0, 0.0, 1.0], [0.0, 0.6, 0.4], [0.13513513513513514, 0.43243243243243246, 0.43243243243243246], [0.15151515151515152, 0.48484848484848486, 0.36363636363636365], [0.17857142857142858, 0.5714285714285714, 0.25], [0.0, 0.7, 0.3], [0.625, 0.25, 0.125], [0.0, 0.0, 1.0], [0.0, 0.0, 1.0], [0.013513513513513514, 0.7432432432432432, 0.24324324324324326], [0.014705882352941176, 0.7794117647058824, 0.20588235294117646], [0.017857142857142856, 0.8214285714285714, 0.16071428571428573], [0.0196078431372549, 0.8823529411764706, 0.09803921568627451], [0.0, 0.9166666666666666, 0.08333333333333333], [0.0, 0.8095238095238095, 0.19047619047619047], [0.0, 1.0, 0.0], [0.3333333333333333, 0.3333333333333333, 0.3333333333333333], [0.0, 0.2, 0.8], [0.0, 0.5833333333333334, 0.4166666666666667], [0.0, 0.3333333333333333, 0.6666666666666666], [0.13636363636363635, 0.18181818181818182, 0.6818181818181818], [0.05128205128205128, 0.20512820512820512, 0.7435897435897436], [0.043478260869565216, 0.043478260869565216, 0.9130434782608695], [0.05, 0.0, 0.95], [0.0, 0.3333333333333333, 0.6666666666666666], [0.0625, 0.4375, 0.5], [0.8, 0.0, 0.2], [0.42448979591836733, 0.2571428571428571, 0.3183673469387755], [0.3888888888888889, 0.25462962962962965, 0.35648148148148145], [0.2857142857142857, 0.3157894736842105, 0.39849624060150374], [0.3220338983050847, 0.2627118644067797, 0.4152542372881356], [0.32456140350877194, 0.24561403508771928, 0.4298245614035088], [0.3258426966292135, 0.30337078651685395, 0.3707865168539326], [0.29411764705882354, 0.3176470588235294, 0.38823529411764707], [0.25, 0.3375, 0.4125], [1.0, 0.0, 0.0], [1.0, 0.0, 0.0], [0.32, 0.04, 0.64], [0.25, 0.75, 0.0], [0.0, 0.7333333333333333, 0.26666666666666666], [0.5542168674698795, 0.1566265060240964, 0.2891566265060241], [0.4931506849315068, 0.1780821917808219, 0.3287671232876712], [0.25, 0.16666666666666666, 0.5833333333333334], [0.11764705882352941, 0.11764705882352941, 0.7647058823529411], [0.5714285714285714, 0.2857142857142857, 0.14285714285714285], [0.6122448979591837, 0.1836734693877551, 0.20408163265306123], [0.7096774193548387, 0.2903225806451613, 0.0], [0.8461538461538461, 0.15384615384615385, 0.0], [0.7894736842105263, 0.21052631578947367, 0.0], [1.0, 0.0, 0.0], [0.0, 1.0, 0.0], [0.4444444444444444, 0.0, 0.5555555555555556], [1.0, 0.0, 0.0], [0.6896551724137931, 0.27586206896551724, 0.034482758620689655], [0.76, 0.2, 0.04], [0.8636363636363636, 0.09090909090909091, 0.045454545454545456], [0.0, 1.0, 0.0], [0.25, 0.75, 0.0], [0.5714285714285714, 0.10714285714285714, 0.32142857142857145], [0.7272727272727273, 0.045454545454545456, 0.22727272727272727], [0.6470588235294118, 0.058823529411764705, 0.29411764705882354], [1.0, 0.0, 0.0], [0.0, 0.3333333333333333, 0.6666666666666666], [0.41, 0.45, 0.14], [0.08, 0.72, 0.2], [0.05405405405405406, 0.8648648648648649, 0.08108108108108109], [0.13333333333333333, 0.6666666666666666, 0.2], [0.0, 1.0, 0.0], [0.15384615384615385, 0.3076923076923077, 0.5384615384615384], [0.74, 0.18, 0.08], [0.7659574468085106, 0.14893617021276595, 0.0851063829787234], [0.8181818181818182, 0.09090909090909091, 0.09090909090909091], [0.8571428571428571, 0.07142857142857142, 0.07142857142857142], [0.7777777777777778, 0.1111111111111111, 0.1111111111111111], [0.8823529411764706, 0.11764705882352941, 0.0], [0.6, 0.1, 0.3], [1.0, 0.0, 0.0], [0.0, 0.5, 0.5], [0.0, 1.0, 0.0], [0.3333333333333333, 0.6666666666666666, 0.0]]}, {"node_count": 99, "children_left": [1, 2, 3, 4, 5, 6, 7, 8, 9, 10, -1, -1, -1, -1, -1, -1, -1, 18, 19, 20, 21, 22, 23, -1, -1, -1, -1, -1, -1, -1, 31, 32, 33, 34, 35, 36, 37, -1, -1, -1, -1, -1, 43, -1, -1, 46, 47, -1, -1, -1, -1, 52, 53, 54, -1, -1, -1, -1, 59, 60, 61, 62, 63, 64, 65, -1, -1, -1, -1, -1, 71, 72, 73, -1, 75, 76, -1, -1, -1, 80, 81, 82, 83, -1, -1, -1, -1, -1, -1, 90, 91, -1, -1, -1, 95, -1, 97, -1, -1], "children_right": [58, 51, 30, 17, 16, 15, 14, 13, 12, 11, -1, -1, -1, -1, -1, -1, -1, 29, 28, 27, 26, 25, 24, -1, -1, -1, -1, -1, -1, -1, 50, 45, 42, 41, 40, 39, 38, -1, -1, -1, -1, -1, 44, -1, -1, 49, 48, -1, -1, -1, -1, 57, 56, 55, -1, -1, -1, -1, 94, 89, 70, 69, 68, 67, 66, -1, -1, -1, -1, -1, 88, 79, 74, -1, 78, 77, -1, -1, -1, 87, 86, 85, 84, -1, -1, -1, -1, -1, -1, 93, 92, -1, -1, -1, 96, -1, 98, -1, -1], "feature": [102, 105, 103, 311, 70, 196, 26, 6, 306, 102, -2, -2, -2, -2, -2, -2, -2, 27, 179, 6, 18, 116, 300, -2, -2, -2, -2, -2, -2, -2, 242, 15, 217, 85, 254, 114, 124, -2, -2, -2, -2, -2, 318, -2, -2, 148, 230, -2, -2, -2, -2, 13, 124, 100, -2, -2, -2, -2, 27, 66, 300, 237, 215, 254, 217, -2, -2, -2, -2, -2, 24, 307, 305, -2, 170, 300, -2, -2, -2, 105, 32, 213, 314, -2, -2, -2, -2, -2, -2, 115, 128, -2, -2, -2, 303, -2, 310, -2, -2], "threshold": [1.5, 1.5, 0.5, 0.5, 0.5, 0.5, 0.5, 1.5, 0.5, 0.5, -2.0, -2.0, -2.0, -2.0, -2.0, -2.0, -2.0, 0.5, 0.5, 1.5, 0.5, 0.5, 2.5, -2.0, -2.0, -2.0, -2.0, -2.0, -2.0, -2.0, 0.5, 0.5, 0.5, 0.5, 0.5, 0.5, 0.5, -2.0, -2.0, -2.0, -2.0, -2.0, 0.5, -2.0, -2.0, 0.5, 0.5, -2.0, -2.0, -2.0, -2.0, 1.5, 0.5, 1.5, -2.0, -2.0, -2.0, -2.0, 0.5, 0.5, 2.5, 0.5, 0.5, 0.5, 0.5, -2.0, -2.0, -2.0, -2.0, -2.0, 0.5, 0.5, 0.5, -2.0, 0.5, 3.5, -2.0, -2.0, -2.0, 2.5, 0.5, 0.5, 0.5, -2.0, -2.0, -2.0, -2.0, -2.0, -2.0, 1.0, 0.5, -2.0, -2.0, -2.0, 2.5, -2.0, 0.5, -2.0, -2.0], "value": [[0.359375, 0.296875, 0.34375], [0.25, 0.35, 0.4], [0.2491103202846975, 0.3096085409252669, 0.4412811387900356], [0.1511627906976744, 0.36046511627906974, 0.4883720930232558], [0.06956521739130435, 0.3652173913043478, 0.5652173913043478], [0.07272727272727272, 0.38181818181818183, 0.5454545454545454], [0.0594059405940594, 0.3465346534653465, 0.594059405940594], [0.06060606060606061, 0.35353535353535354, 0.5858585858585859], [0.02127659574468085, 0.3723404255319149, 0.6063829787234043], [0.0273972602739726, 0.2602739726027397, 0.7123287671232876], [0.021739130434782608, 0.1956521739130435, 0.782608695652174], [0.037037037037037035, 0.37037037037037035, 0.5925925925925926], [0.0, 0.7619047619047619, 0.23809523809523808], [0.8, 0.0, 0.2], [0.0, 0.0, 1.0], [0.2222222222222222, 0.7777777777777778, 0.0], [0.0, 0.0, 1.0], [0.3157894736842105, 0.3508771929824561, 0.3333333333333333], [0.2777777777777778, 0.37037037037037035, 0.35185185185185186], [0.3125, 0.3125, 0.375], [0.23809523809523808, 0.35714285714285715, 0.40476190476190477], [0.17142857142857143, 0.42857142857142855, 0.4], [0.10344827586206896, 0.5172413793103449, 0.3793103448275862], [0.0, 0.4166666666666667, 0.5833333333333334], [0.17647058823529413, 0.5882352941176471, 0.23529411764705882], [0.5, 0.0, 0.5], [0.5714285714285714, 0.0, 0.42857142857142855], [0.8333333333333334, 0.0, 0.16666666666666666], [0.0, 0.8333333333333334, 0.16666666666666666], [1.0, 0.0, 0.0], [0.4036697247706422, 0.22935779816513763, 0.3669724770642202], [0.36, 0.25, 0.39], [0.36, 0.17333333333333334, 0.4666666666666667], [0.25925925925925924, 0.2222222222222222, 0.5185185185185185], [0.2916666666666667, 0.25, 0.4583333333333333], [0.22727272727272727, 0.2727272727272727, 0.5], [0.17647058823529413, 0.35294117647058826, 0.47058823529411764], [0.16, 0.24, 0.6], [0.2222222222222222, 0.6666666666666666, 0.1111111111111111], [0.4, 0.0, 0.6], [1.0, 0.0, 0.0], [0.0, 0.0, 1.0], [0.6190476190476191, 0.047619047619047616, 0.3333333333333333], [0.8125, 0.0625, 0.125], [0.0, 0.0, 1.0], [0.36, 0.48, 0.16], [0.2727272727272727, 0.5454545454545454, 0.18181818181818182], [0.3157894736842105, 0.5789473684210527, 0.10526315789473684], [0.0, 0.3333333333333333, 0.6666666666666666], [1.0, 0.0, 0.0], [0.8888888888888888, 0.0, 0.1111111111111111], [0.2564102564102564, 0.6410256410256411, 0.10256410256410256], [0.19444444444444445, 0.6944444444444444, 0.1111111111111111], [0.03571428571428571, 0.8928571428571429, 0.07142857142857142], [0.0, 1.0, 0.0], [0.06666666666666667, 0.8, 0.13333333333333333], [0.75, 0.0, 0.25], [1.0, 0.0, 0.0], [0.49609375, 0.23046875, 0.2734375], [0.4479638009049774, 0.248868778280543, 0.3031674208144796], [0.38341968911917096, 0.27979274611398963, 0.33678756476683935], [0.10344827586206896, 0.25862068965517243, 0.6379310344827587], [0.14634146341463414, 0.34146341463414637, 0.5121951219512195], [0.14285714285714285, 0.2571428571428571, 0.6], [0.16666666666666666, 0.3, 0.5333333333333333], [0.08333333333333333, 0.2916666666666667, 0.625], [0.5, 0.3333333333333333, 0.16666666666666666], [0.0, 0.0, 1.0], [0.16666666666666666, 0.8333333333333334, 0.0], [0.0, 0.058823529411764705, 0.9411764705882353], [0.5037037037037037, 0.28888888888888886, 0.2074074074074074], [0.532258064516129, 0.31451612903225806, 0.1532258064516129], [0.24489795918367346, 0.5306122448979592, 0.22448979591836735], [0.5217391304347826, 0.2608695652173913, 0.21739130434782608], [0.0, 0.7692307692307693, 0.23076923076923078], [0.0, 0.8333333333333334, 0.16666666666666666], [0.0, 0.5, 0.5], [0.0, 1.0, 0.0], [0.0, 0.0, 1.0], [0.72, 0.17333333333333334, 0.10666666666666667], [0.7397260273972602, 0.1506849315068493, 0.1095890410958904], [0.7910447761194029, 0.08955223880597014, 0.11940298507462686], [0.9056603773584906, 0.018867924528301886, 0.07547169811320754], [0.8076923076923077, 0.038461538461538464, 0.15384615384615385], [1.0, 0.0, 0.0], [0.35714285714285715, 0.35714285714285715, 0.2857142857142857], [0.16666666666666666, 0.8333333333333334, 0.0], [0.0, 1.0, 0.0], [0.18181818181818182, 0.0, 0.8181818181818182], [0.8928571428571429, 0.03571428571428571, 0.07142857142857142], [0.9545454545454546, 0.0, 0.045454545454545456], [1.0, 0.0, 0.0], [0.875, 0.0, 0.125], [0.6666666666666666, 0.16666666666666666, 0.16666666666666666], [0.8, 0.11428571428571428, 0.08571428571428572], [0.25, 0.25, 0.5], [0.8709677419354839, 0.0967741935483871, 0.03225806451612903], [0.7692307692307693, 0.23076923076923078, 0.0], [0.9444444444444444, 0.0, 0.05555555555555555]]}, {"node_count": 81, "children_left": [1, 2, 3, 4, 5, 6, 7, 8, 9, 10, -1, -1, 13, -1, -1, -1, -1, -1, -1, 20, 21, 22, 23, 24, 25, -1, -1, 28, -1, -1, -1, -1, -1, -1, 35, -1, 37, -1, -1, -1, 41, 42, 43, 44, 45, 46, 47, -1, -1, 50, 51, -1, -1, -1, -1, -1, -1, 58, 59, 60, 61, 62, 63, 64, -1, -1, -1, -1, -1, -1, -1, -1, 73, 74, 75, 76, -1, -1, -1, -1, -1], "children_right": [40, 39, 34, 19, 18, 17, 16, 15, 12, 11, -1, -1, 14, -1, -1, -1, -1, -1, -1, 33, 32, 31, 30, 27, 26, -1, -1, 29, -1, -1, -1, -1, -1, -1, 36, -1, 38, -1, -1, -1, 72, 57, 56, 55, 54, 49, 48, -1, -1, 53, 52, -1, -1, -1, -1, -1, -1, 71, 70, 69, 68, 67, 66, 65, -1, -1, -1, -1, -1, -1, -1, -1, 80, 79, 78, 77, -1, -1, -1, -1, -1], "feature": [305, 152, 22, 101, 212, 215, 98, 200, 300, 153, -2, -2, 225, -2, -2, -2, -2, -2, -2, 220, 167, 94, 250, 8, 243, -2, -2, 103, -2, -2, -2, -2, -2, -2, 103, -2, 127, -2, -2, -2, 255, 301, 141, 196, 218, 303, 269, -2, -2, 217, 162, -2, -2, -2, -2, -2, -2, 178, 300, 7, 13, 83, 215, 45, -2, -2, -2, -2, -2, -2, -2, -2, 258, 272, 215, 95, -2, -2, -2, -2, -2], "threshold": [0.5, 0.5, 0.5, 0.5, 0.5, 0.5, 0.5, 1.5, 2.5, 0.5, -2.0, -2.0, 0.5, -2.0, -2.0, -2.0, -2.0, -2.0, -2.0, 1.5, 0.5, 0.5, 0.5, 0.5, 0.5, -2.0, -2.0, 4.5, -2.0, -2.0, -2.0, -2.0, -2.0, -2.0, 0.5, -2.0, 0.5, -2.0, -2.0, -2.0, 0.5, 2.5, 0.5, 0.5, 0.5, 2.5, 0.5, -2.0, -2.0, 0.5, 0.5, -2.0, -2.0, -2.0, -2.0, -2.0, -2.0, 0.5, 4.5, 0.5, 0.5, 0.5, 1.5, 0.5, -2.0, -2.0, -2.0, -2.0, -2.0, -2.0, -2.0, -2.0, 0.5, 0.5, 0.5, 0.5, -2.0, -2.0, -2.0, -2.0, -2.0], "value": [[0.3559027777777778, 0.3315972222222222, 0.3125], [0.3737704918032787, 0.20655737704918034, 0.419672131147541], [0.3877551020408163, 0.1836734693877551, 0.42857142857142855], [0.33458646616541354, 0.20300751879699247, 0.462406015037594], [0.16666666666666666, 0.27450980392156865, 0.5588235294117647], [0.1797752808988764, 0.20224719101123595, 0.6179775280898876], [0.18823529411764706, 0.16470588235294117, 0.6470588235294118], [0.1686746987951807, 0.1686746987951807, 0.6626506024096386], [0.0967741935483871, 0.1935483870967742, 0.7096774193548387], [0.0, 0.12121212121212122, 0.8787878787878788], [0.0, 0.0967741935483871, 0.9032258064516129], [0.0, 0.5, 0.5], [0.20689655172413793, 0.27586206896551724, 0.5172413793103449], [0.14814814814814814, 0.2962962962962963, 0.5555555555555556], [1.0, 0.0, 0.0], [0.38095238095238093, 0.09523809523809523, 0.5238095238095238], [1.0, 0.0, 0.0], [0.0, 1.0, 0.0], [0.07692307692307693, 0.7692307692307693, 0.15384615384615385], [0.43902439024390244, 0.15853658536585366, 0.4024390243902439], [0.4370860927152318, 0.12582781456953643, 0.4370860927152318], [0.40559440559440557, 0.13286713286713286, 0.46153846153846156], [0.375, 0.13970588235294118, 0.4852941176470588], [0.30357142857142855, 0.16964285714285715, 0.5267857142857143], [0.4098360655737705, 0.18032786885245902, 0.4098360655737705], [0.4528301886792453, 0.18867924528301888, 0.3584905660377358], [0.125, 0.125, 0.75], [0.17647058823529413, 0.1568627450980392, 0.6666666666666666], [0.17391304347826086, 0.08695652173913043, 0.7391304347826086], [0.2, 0.8, 0.0], [0.7083333333333334, 0.0, 0.2916666666666667], [1.0, 0.0, 0.0], [1.0, 0.0, 0.0], [0.46153846153846156, 0.5384615384615384, 0.0], [0.8928571428571429, 0.0, 0.10714285714285714], [0.6666666666666666, 0.0, 0.3333333333333333], [0.9545454545454546, 0.0, 0.045454545454545456], [1.0, 0.0, 0.0], [0.6666666666666666, 0.0, 0.3333333333333333], [0.0, 0.8181818181818182, 0.18181818181818182], [0.33579335793357934, 0.47232472324723246, 0.1918819188191882], [0.2631578947368421, 0.5175438596491229, 0.21929824561403508], [0.0958904109589041, 0.5753424657534246, 0.3287671232876712], [0.109375, 0.515625, 0.375], [0.1016949152542373, 0.559322033898305, 0.3389830508474576], [0.09433962264150944, 0.6037735849056604, 0.3018867924528302], [0.05, 0.8, 0.15], [0.0, 0.9375, 0.0625], [0.25, 0.25, 0.5], [0.12121212121212122, 0.48484848484848486, 0.3939393939393939], [0.045454545454545456, 0.6818181818181818, 0.2727272727272727], [0.05, 0.75, 0.2], [0.0, 0.0, 1.0], [0.2727272727272727, 0.09090909090909091, 0.6363636363636364], [0.16666666666666666, 0.16666666666666666, 0.6666666666666666], [0.2, 0.0, 0.8], [0.0, 1.0, 0.0], [0.3419354838709677, 0.49032258064516127, 0.16774193548387098], [0.2773722627737226, 0.5328467153284672, 0.1897810218978102], [0.19672131147540983, 0.5901639344262295, 0.21311475409836064], [0.1651376146788991, 0.6422018348623854, 0.1926605504587156], [0.19753086419753085, 0.5802469135802469, 0.2222222222222222], [0.12857142857142856, 0.6285714285714286, 0.24285714285714285], [0.14285714285714285, 0.5873015873015873, 0.2698412698412698], [0.09090909090909091, 0.6545454545454545, 0.2545454545454545], [0.5, 0.125, 0.375], [0.0, 1.0, 0.0], [0.6363636363636364, 0.2727272727272727, 0.09090909090909091], [0.07142857142857142, 0.8214285714285714, 0.10714285714285714], [0.46153846153846156, 0.15384615384615385, 0.38461538461538464], [0.9333333333333333, 0.06666666666666667, 0.0], [0.8333333333333334, 0.16666666666666666, 0.0], [0.7209302325581395, 0.23255813953488372, 0.046511627906976744], [0.8, 0.17142857142857143, 0.02857142857142857], [0.8484848484848485, 0.12121212121212122, 0.030303030303030304], [0.9, 0.06666666666666667, 0.03333333333333333], [0.96, 0.04, 0.0], [0.6, 0.2, 0.2], [0.3333333333333333, 0.6666666666666666, 0.0], [0.0, 1.0, 0.0], [0.375, 0.5, 0.125]]}, {"node_count": 85, "children_left": [1, 2, 3, 4, 5, 6, 7, 8, 9, 10, -1, -1, -1, 14, 15, -1, -1, -1, -1, 20, 21, 22, 23, -1, -1, -1, -1, 28, 29, 30, -1, -1, -1, -1, -1, -1, 37, 38, 39, 40, 41, 42, -1, 44, -1, -1, -1, -1, 49, 50, 51, -1, -1, -1, -1, -1, -1, 58, 59, 60, -1, -1, -1, 64, 65, -1, -1, -1, 69, 70, 71, 72, 73, 74, 75, 76, -1, -1, -1, -1, -1, -1, -1, -1, -1], "children_right": [68, 57, 36, 35, 34, 19, 18, 13, 12, 11, -1, -1, -1, 17, 16, -1, -1, -1, -1, 27, 26, 25, 24, -1, -1, -1, -1, 33, 32, 31, -1, -1, -1, -1, -1, -1, 56, 55, 48, 47, 46, 43, -1, 45, -1, -1, -1, -1, 54, 53, 52, -1, -1, -1, -1, -1, -1, 63, 62, 61, -1, -1, -1, 67, 66, -1, -1, -1, 84, 83, 82, 81, 80, 79, 78, 77, -1, -1, -1, -1, -1, -1, -1, -1, -1], "feature": [32, 112, 0, 276, 139, 102, 34, 310, 191, 264, -2, -2, -2, 202, 300, -2, -2, -2, -2, 310, 258, 257, 178, -2, -2, -2, -2, 299, 115, 107, -2, -2, -2, -2, -2, -2, 201, 257, 213, 48, 144, 307, -2, 297, -2, -2, -2, -2, 250, 126, 229, -2, -2, -2, -2, -2, -2, 312, 204, 240, -2, -2, -2, 227, 300, -2, -2, -2, 10, 248, 310, 229, 308, 251, 119, 102, -2, -2, -2, -2, -2, -2, -2, -2, -2], "threshold": [0.5, 0.5, 1.5, 0.5, 0.5, 1.5, 0.5, 0.5, 0.5, 0.5, -2.0, -2.0, -2.0, 1.5, 2.5, -2.0, -2.0, -2.0, -2.0, 0.5, 0.5, 0.5, 0.5, -2.0, -2.0, -2.0, -2.0, 0.5, 0.5, 0.5, -2.0, -2.0, -2.0, -2.0, -2.0, -2.0, 6.0, 0.5, 0.5, 0.5, 0.5, 0.5, -2.0, 0.5, -2.0, -2.0, -2.0, -2.0, 0.5, 1.5, 0.5, -2.0, -2.0, -2.0, -2.0, -2.0, -2.0, 0.5, 1.5, 0.5, -2.0, -2.0, -2.0, 0.5, 3.5, -2.0, -2.0, -2.0, 0.5, 0.5, 0.5, 1.5, 0.5, 0.5, 0.5, 0.5, -2.0, -2.0, -2.0, -2.0, -2.0, -2.0, -2.0, -2.0, -2.0], "value": [[0.3506944444444444, 0.3263888888888889, 0.3229166666666667], [0.3747534516765286, 0.3057199211045365, 0.31952662721893493], [0.39592760180995473, 0.2737556561085973, 0.33031674208144796], [0.3601190476190476, 0.30357142857142855, 0.33630952380952384], [0.3426791277258567, 0.308411214953271, 0.34890965732087226], [0.3235294117647059, 0.31699346405228757, 0.35947712418300654], [0.2617801047120419, 0.3036649214659686, 0.43455497382198954], [0.2768361581920904, 0.327683615819209, 0.3954802259887006], [0.15, 0.4, 0.45], [0.16129032258064516, 0.43010752688172044, 0.40860215053763443], [0.125, 0.45454545454545453, 0.42045454545454547], [0.8, 0.0, 0.2], [0.0, 0.0, 1.0], [0.44155844155844154, 0.23376623376623376, 0.3246753246753247], [0.47761194029850745, 0.26865671641791045, 0.2537313432835821], [0.0, 0.2631578947368421, 0.7368421052631579], [0.6666666666666666, 0.2708333333333333, 0.0625], [0.2, 0.0, 0.8], [0.07142857142857142, 0.0, 0.9285714285714286], [0.4260869565217391, 0.3391304347826087, 0.23478260869565218], [0.15217391304347827, 0.41304347826086957, 0.43478260869565216], [0.175, 0.475, 0.35], [0.20588235294117646, 0.38235294117647056, 0.4117647058823529], [0.2222222222222222, 0.48148148148148145, 0.2962962962962963], [0.14285714285714285, 0.0, 0.8571428571428571], [0.0, 1.0, 0.0], [0.0, 0.0, 1.0], [0.6086956521739131, 0.2898550724637681, 0.10144927536231885], [0.625, 0.3125, 0.0625], [0.74, 0.18, 0.08], [0.92, 0.08, 0.0], [0.56, 0.28, 0.16], [0.21428571428571427, 0.7857142857142857, 0.0], [0.4, 0.0, 0.6], [0.7333333333333333, 0.13333333333333333, 0.13333333333333333], [0.7333333333333333, 0.2, 0.06666666666666667], [0.5094339622641509, 0.1792452830188679, 0.3113207547169811], [0.5346534653465347, 0.13861386138613863, 0.32673267326732675], [0.5869565217391305, 0.10869565217391304, 0.30434782608695654], [0.703125, 0.078125, 0.21875], [0.8148148148148148, 0.05555555555555555, 0.12962962962962962], [0.85, 0.075, 0.075], [0.16666666666666666, 0.3333333333333333, 0.5], [0.9705882352941176, 0.029411764705882353, 0.0], [1.0, 0.0, 0.0], [0.5, 0.5, 0.0], [0.7142857142857143, 0.0, 0.2857142857142857], [0.1, 0.2, 0.7], [0.32142857142857145, 0.17857142857142858, 0.5], [0.13636363636363635, 0.22727272727272727, 0.6363636363636364], [0.15, 0.15, 0.7], [0.3, 0.2, 0.5], [0.0, 0.1, 0.9], [0.0, 1.0, 0.0], [1.0, 0.0, 0.0], [0.0, 0.4444444444444444, 0.5555555555555556], [0.0, 1.0, 0.0], [0.23076923076923078, 0.5230769230769231, 0.24615384615384617], [0.029411764705882353, 0.8235294117647058, 0.14705882352941177], [0.0, 0.84375, 0.15625], [0.0, 0.7727272727272727, 0.22727272727272727], [0.0, 1.0, 0.0], [0.5, 0.5, 0.0], [0.45161290322580644, 0.1935483870967742, 0.3548387096774194], [0.5, 0.21428571428571427, 0.2857142857142857], [0.17647058823529413, 0.35294117647058826, 0.47058823529411764], [1.0, 0.0, 0.0], [0.0, 0.0, 1.0], [0.17391304347826086, 0.4782608695652174, 0.34782608695652173], [0.08771929824561403, 0.5614035087719298, 0.3508771929824561], [0.09615384615384616, 0.5192307692307693, 0.38461538461538464], [0.0, 0.631578947368421, 0.3684210526315789], [0.0, 0.6857142857142857, 0.3142857142857143], [0.0, 0.75, 0.25], [0.0, 0.6923076923076923, 0.3076923076923077], [0.0, 0.7894736842105263, 0.21052631578947367], [0.0, 1.0, 0.0], [0.0, 0.6923076923076923, 0.3076923076923077], [0.0, 0.42857142857142855, 0.5714285714285714], [0.0, 1.0, 0.0], [0.0, 0.0, 1.0], [0.0, 0.0, 1.0], [0.35714285714285715, 0.21428571428571427, 0.42857142857142855], [0.0, 1.0, 0.0], [0.5833333333333334, 0.08333333333333333, 0.3333333333333333]]}, {"node_count": 83, "children_left": [1, 2, 3, 4, 5, 6, 7, 8, 9, 10, -1, -1, -1, -1, 15, -1, -1, 18, 19, 20, 21, -1, -1, -1, -1, -1, -1, 28, 29, 30, 31, 32, -1, 34, -1, -1, -1, 38, 39, -1, -1, -1, -1, -1, 45, 46, 47, 48, -1, -1, -1, -1, 53, 54, -1, -1, -1, 58, 59, -1, 61, 62, 63, 64, 65, 66, -1, -1, -1, -1, -1, 72, 73, -1, -1, -1, -1, 78, 79, -1, -1, -1, -1], "children_right": [82, 57, 44, 27, 26, 17, 14, 13, 12, 11, -1, -1, -1, -1, 16, -1, -1, 25, 24, 23, 22, -1, -1, -1, -1, -1, -1, 43, 42, 37, 36, 33, -1, 35, -1, -1, -1, 41, 40, -1, -1, -1, -1, -1, 52, 51, 50, 49, -1, -1, -1, -1, 56, 55, -1, -1, -1, 77, 60, -1, 76, 71, 70, 69, 68, 67, -1, -1, -1, -1, -1, 75, 74, -1, -1, -1, -1, 81, 80, -1, -1, -1, -1], "feature": [22, 300, 102, 311, 213, 12, 41, 6, 118, 69, -2, -2, -2, -2, 101, -2, -2, 145, 242, 15, 305, -2, -2, -2, -2, -2, -2, 29, 141, 107, 120, 300, -2, 7, -2, -2, -2, 251, 255, -2, -2, -2, -2, -2, 119, 115, 254, 116, -2, -2, -2, -2, 122, 134, -2, -2, -2, 208, 303, -2, 148, 210, 45, 291, 9, 310, -2, -2, -2, -2, -2, 81, 114, -2, -2, -2, -2, 231, 210, -2, -2, -2, -2], "threshold": [1.5, 3.5, 2.5, 0.5, 1.5, 0.5, 0.5, 0.5, 0.5, 0.5, -2.0, -2.0, -2.0, -2.0, 0.5, -2.0, -2.0, 0.5, 0.5, 0.5, 0.5, -2.0, -2.0, -2.0, -2.0, -2.0, -2.0, 0.5, 0.5, 0.5, 0.5, 1.5, -2.0, 0.5, -2.0, -2.0, -2.0, 0.5, 0.5, -2.0, -2.0, -2.0, -2.0, -2.0, 0.5, 0.5, 0.5, 1.5, -2.0, -2.0, -2.0, -2.0, 0.5, 0.5, -2.0, -2.0, -2.0, 0.5, 1.5, -2.0, 0.5, 0.5, 0.5, 0.5, 1.5, 0.5, -2.0, -2.0, -2.0, -2.0, -2.0, 0.5, 0.5, -2.0, -2.0, -2.0, -2.0, 0.5, 0.5, -2.0, -2.0, -2.0, -2.0], "value": [[0.3576388888888889, 0.3159722222222222, 0.3263888888888889], [0.3416815742397138, 0.32558139534883723, 0.33273703041144903], [0.15606936416184972, 0.3930635838150289, 0.4508670520231214], [0.11870503597122302, 0.3776978417266187, 0.5035971223021583], [0.04568527918781726, 0.40609137055837563, 0.5482233502538071], [0.043243243243243246, 0.3891891891891892, 0.5675675675675675], [0.04065040650406504, 0.45528455284552843, 0.5040650406504065], [0.04807692307692308, 0.38461538461538464, 0.5673076923076923], [0.03333333333333333, 0.43333333333333335, 0.5333333333333333], [0.02531645569620253, 0.4810126582278481, 0.4936708860759494], [0.02631578947368421, 0.5, 0.47368421052631576], [0.0, 0.0, 1.0], [0.09090909090909091, 0.09090909090909091, 0.8181818181818182], [0.14285714285714285, 0.07142857142857142, 0.7857142857142857], [0.0, 0.8421052631578947, 0.15789473684210525], [0.0, 0.7272727272727273, 0.2727272727272727], [0.0, 1.0, 0.0], [0.04838709677419355, 0.25806451612903225, 0.6935483870967742], [0.05172413793103448, 0.22413793103448276, 0.7241379310344828], [0.0, 0.23529411764705882, 0.7647058823529411], [0.0, 0.19148936170212766, 0.8085106382978723], [0.0, 0.1388888888888889, 0.8611111111111112], [0.0, 0.36363636363636365, 0.6363636363636364], [0.0, 0.75, 0.25], [0.42857142857142855, 0.14285714285714285, 0.42857142857142855], [0.0, 0.75, 0.25], [0.08333333333333333, 0.6666666666666666, 0.25], [0.2962962962962963, 0.30864197530864196, 0.3950617283950617], [0.3076923076923077, 0.28205128205128205, 0.41025641025641024], [0.3287671232876712, 0.2328767123287671, 0.4383561643835616], [0.19444444444444445, 0.16666666666666666, 0.6388888888888888], [0.09375, 0.1875, 0.71875], [0.0, 0.0, 1.0], [0.15789473684210525, 0.3157894736842105, 0.5263157894736842], [0.13333333333333333, 0.4, 0.4666666666666667], [0.25, 0.0, 0.75], [1.0, 0.0, 0.0], [0.4594594594594595, 0.2972972972972973, 0.24324324324324326], [0.5151515151515151, 0.3333333333333333, 0.15151515151515152], [0.6363636363636364, 0.18181818181818182, 0.18181818181818182], [0.2727272727272727, 0.6363636363636364, 0.09090909090909091], [0.0, 0.0, 1.0], [0.0, 1.0, 0.0], [0.0, 1.0, 0.0], [0.3088235294117647, 0.45588235294117646, 0.23529411764705882], [0.5135135135135135, 0.2702702702702703, 0.21621621621621623], [0.6206896551724138, 0.13793103448275862, 0.2413793103448276], [0.6923076923076923, 0.07692307692307693, 0.23076923076923078], [0.782608695652174, 0.043478260869565216, 0.17391304347826086], [0.0, 0.3333333333333333, 0.6666666666666666], [0.0, 0.6666666666666666, 0.3333333333333333], [0.125, 0.75, 0.125], [0.06451612903225806, 0.6774193548387096, 0.25806451612903225], [0.037037037037037035, 0.7777777777777778, 0.18518518518518517], [0.041666666666666664, 0.875, 0.08333333333333333], [0.0, 0.0, 1.0], [0.25, 0.0, 0.75], [0.6431924882629108, 0.215962441314554, 0.14084507042253522], [0.6918604651162791, 0.19186046511627908, 0.11627906976744186], [0.0, 1.0, 0.0], [0.7125748502994012, 0.16766467065868262, 0.11976047904191617], [0.7517241379310344, 0.16551724137931034, 0.08275862068965517], [0.7207207207207207, 0.21621621621621623, 0.06306306306306306], [0.6666666666666666, 0.25287356321839083, 0.08045977011494253], [0.691358024691358, 0.2222222222222222, 0.08641975308641975], [0.7088607594936709, 0.22784810126582278, 0.06329113924050633], [0.4666666666666667, 0.4, 0.13333333333333333], [0.8571428571428571, 0.12244897959183673, 0.02040816326530612], [0.0, 0.0, 1.0], [0.3333333333333333, 0.6666666666666666, 0.0], [0.9166666666666666, 0.08333333333333333, 0.0], [0.8529411764705882, 0.0, 0.14705882352941177], [0.9, 0.0, 0.1], [1.0, 0.0, 0.0], [0.625, 0.0, 0.375], [0.5, 0.0, 0.5], [0.45454545454545453, 0.18181818181818182, 0.36363636363636365], [0.43902439024390244, 0.3170731707317073, 0.24390243902439024], [0.5555555555555556, 0.18518518518518517, 0.25925925925925924], [0.6818181818181818, 0.22727272727272727, 0.09090909090909091], [0.0, 0.0, 1.0], [0.21428571428571427, 0.5714285714285714, 0.21428571428571427], [0.8823529411764706, 0.0, 0.11764705882352941]]}, {"node_count": 81, "children_left": [1, 2, 3, 4, 5, 6, 7, 8, -1, -1, 11, 12, 13, -1, -1, -1, -1, -1, -1, -1, 21, 22, 23, 24, 25, 26, 27, -1, -1, -1, -1, -1, -1, -1, -1, 36, 37, 38, 39, 40, 41, 42, 43, -1, -1, -1, -1, 48, -1, -1, 51, -1, 53, -1, -1, -1, 57, -1, -1, -1, 61, 62, 63, 64, -1, -1, -1, 68, 69, 70, 71, 72, 73, -1, -1, -1, -1, -1, -1, -1, -1], "children_right": [60, 35, 20, 19, 18, 17, 10, 9, -1, -1, 16, 15, 14, -1, -1, -1, -1, -1, -1, -1, 34, 33, 32, 31, 30, 29, 28, -1, -1, -1, -1, -1, -1, -1, -1, 59, 56, 55, 50, 47, 46, 45, 44, -1, -1, -1, -1, 49, -1, -1, 52, -1, 54, -1, -1, -1, 58, -1, -1, -1, 80, 67, 66, 65, -1, -1, -1, 79, 78, 77, 76, 75, 74, -1, -1, -1, -1, -1, -1, -1, -1], "feature": [301, 312, 305, 303, 144, 112, 303, 308, -2, -2, 130, 127, 50, -2, -2, -2, -2, -2, -2, -2, 89, 120, 148, 69, 46, 308, 226, -2, -2, -2, -2, -2, -2, -2, -2, 34, 66, 190, 41, 126, 52, 197, 156, -2, -2, -2, -2, 119, -2, -2, 0, -2, 136, -2, -2, -2, 126, -2, -2, -2, 179, 307, 318, 231, -2, -2, -2, 301, 291, 120, 138, 67, 30, -2, -2, -2, -2, -2, -2, -2, -2], "threshold": [3.5, 0.5, 0.5, 4.5, 1.5, 0.5, 2.5, 0.5, -2.0, -2.0, 0.5, 0.5, 0.5, -2.0, -2.0, -2.0, -2.0, -2.0, -2.0, -2.0, 0.5, 1.5, 0.5, 0.5, 0.5, 0.5, 0.5, -2.0, -2.0, -2.0, -2.0, -2.0, -2.0, -2.0, -2.0, 0.5, 0.5, 0.5, 0.5, 0.5, 1.5, 0.5, 0.5, -2.0, -2.0, -2.0, -2.0, 0.5, -2.0, -2.0, 0.5, -2.0, 0.5, -2.0, -2.0, -2.0, 0.5, -2.0, -2.0, -2.0, 0.5, 0.5, 0.5, 0.5, -2.0, -2.0, -2.0, 4.5, 0.5, 0.5, 0.5, 0.5, 0.5, -2.0, -2.0, -2.0, -2.0, -2.0, -2.0, -2.0, -2.0], "value": [[0.3003472222222222, 0.3559027777777778, 0.34375], [0.22125813449023862, 0.40563991323210413, 0.37310195227765725], [0.11885245901639344, 0.4959016393442623, 0.38524590163934425], [0.10377358490566038, 0.3584905660377358, 0.5377358490566038], [0.08333333333333333, 0.3229166666666667, 0.59375], [0.09302325581395349, 0.36046511627906974, 0.5465116279069767], [0.10666666666666667, 0.32, 0.5733333333333334], [0.05555555555555555, 0.25, 0.6944444444444444], [0.0, 0.13636363636363635, 0.8636363636363636], [0.14285714285714285, 0.42857142857142855, 0.42857142857142855], [0.15384615384615385, 0.38461538461538464, 0.46153846153846156], [0.10810810810810811, 0.40540540540540543, 0.4864864864864865], [0.10344827586206896, 0.5172413793103449, 0.3793103448275862], [0.125, 0.625, 0.25], [0.0, 0.0, 1.0], [0.125, 0.0, 0.875], [1.0, 0.0, 0.0], [0.0, 0.6363636363636364, 0.36363636363636365], [0.0, 0.0, 1.0], [0.3, 0.7, 0.0], [0.13043478260869565, 0.6014492753623188, 0.26811594202898553], [0.11940298507462686, 0.6194029850746269, 0.26119402985074625], [0.11538461538461539, 0.6384615384615384, 0.24615384615384617], [0.12396694214876033, 0.6611570247933884, 0.21487603305785125], [0.13043478260869565, 0.6956521739130435, 0.17391304347826086], [0.15625, 0.6354166666666666, 0.20833333333333334], [0.09523809523809523, 0.6666666666666666, 0.23809523809523808], [0.0641025641025641, 0.6923076923076923, 0.24358974358974358], [0.5, 0.3333333333333333, 0.16666666666666666], [0.5833333333333334, 0.4166666666666667, 0.0], [0.0, 1.0, 0.0], [0.0, 0.0, 1.0], [0.0, 0.3333333333333333, 0.6666666666666666], [0.25, 0.0, 0.75], [0.5, 0.0, 0.5], [0.33640552995391704, 0.30414746543778803, 0.35944700460829493], [0.35323383084577115, 0.3283582089552239, 0.31840796019900497], [0.2947976878612717, 0.3815028901734104, 0.3236994219653179], [0.27450980392156865, 0.43137254901960786, 0.29411764705882354], [0.3103448275862069, 0.3448275862068966, 0.3448275862068966], [0.16455696202531644, 0.3924050632911392, 0.4430379746835443], [0.1780821917808219, 0.4246575342465753, 0.3972602739726027], [0.18840579710144928, 0.4492753623188406, 0.36231884057971014], [0.203125, 0.40625, 0.390625], [0.0, 1.0, 0.0], [0.0, 0.0, 1.0], [0.0, 0.0, 1.0], [0.6216216216216216, 0.24324324324324326, 0.13513513513513514], [0.7777777777777778, 0.05555555555555555, 0.16666666666666666], [0.47368421052631576, 0.42105263157894735, 0.10526315789473684], [0.16216216216216217, 0.7027027027027027, 0.13513513513513514], [0.0, 0.8666666666666667, 0.13333333333333333], [0.2727272727272727, 0.5909090909090909, 0.13636363636363635], [0.5, 0.3333333333333333, 0.16666666666666666], [0.0, 0.9, 0.1], [0.45, 0.0, 0.55], [0.7142857142857143, 0.0, 0.2857142857142857], [0.5555555555555556, 0.0, 0.4444444444444444], [1.0, 0.0, 0.0], [0.125, 0.0, 0.875], [0.6173913043478261, 0.1565217391304348, 0.22608695652173913], [0.5963302752293578, 0.1651376146788991, 0.23853211009174313], [0.24324324324324326, 0.35135135135135137, 0.40540540540540543], [0.3333333333333333, 0.4074074074074074, 0.25925925925925924], [0.38095238095238093, 0.2857142857142857, 0.3333333333333333], [0.16666666666666666, 0.8333333333333334, 0.0], [0.0, 0.2, 0.8], [0.7777777777777778, 0.06944444444444445, 0.1527777777777778], [0.8333333333333334, 0.045454545454545456, 0.12121212121212122], [0.8524590163934426, 0.01639344262295082, 0.13114754098360656], [0.8125, 0.020833333333333332, 0.16666666666666666], [0.8809523809523809, 0.023809523809523808, 0.09523809523809523], [0.9696969696969697, 0.030303030303030304, 0.0], [1.0, 0.0, 0.0], [0.75, 0.25, 0.0], [0.5555555555555556, 0.0, 0.4444444444444444], [0.3333333333333333, 0.0, 0.6666666666666666], [1.0, 0.0, 0.0], [0.6, 0.4, 0.0], [0.16666666666666666, 0.3333333333333333, 0.5], [1.0, 0.0, 0.0]]}, {"node_count": 89, "children_left": [1, 2, 3, 4, 5, 6, 7, 8, 9, 10, -1, -1, -1, -1, -1, -1, -1, -1, 19, 20, 21, 22, 23, 24, 25, -1, -1, 28, -1, -1, -1, -1, 33, 34, 35, -1, -1, -1, -1, 40, 41, -1, 43, 44, -1, -1, -1, -1, -1, 50, 51, 52, 53, 54, 55, 56, 57, -1, -1, -1, -1, -1, 63, 64, -1, -1, 67, 68, 69, -1, -1, -1, -1, -1, -1, -1, 77, 78, -1, 80, 81, 82, 83, -1, -1, -1, -1, -1, -1], "children_right": [76, 49, 18, 17, 16, 15, 14, 13, 12, 11, -1, -1, -1, -1, -1, -1, -1, -1, 48, 39, 32, 31, 30, 27, 26, -1, -1, 29, -1, -1, -1, -1, 38, 37, 36, -1, -1, -1, -1, 47, 42, -1, 46, 45, -1, -1, -1, -1, -1, 75, 74, 73, 62, 61, 60, 59, 58, -1, -1, -1, -1, -1, 66, 65, -1, -1, 72, 71, 70, -1, -1, -1, -1, -1, -1, -1, 88, 79, -1, 87, 86, 85, 84, -1, -1, -1, -1, -1, -1], "feature": [66, 306, 101, 103, 15, 22, 205, 4, 161, 309, -2, -2, -2, -2, -2, -2, -2, -2, 50, 300, 115, 145, 38, 312, 100, -2, -2, 229, -2, -2, -2, -2, 100, 28, 29, -2, -2, -2, -2, 22, 310, -2, 95, 203, -2, -2, -2, -2, -2, 148, 214, 243, 303, 101, 4, 28, 207, -2, -2, -2, -2, -2, 307, 316, -2, -2, 165, 220, 300, -2, -2, -2, -2, -2, -2, -2, 231, 303, -2, 19, 302, 236, 154, -2, -2, -2, -2, -2, -2], "threshold": [0.5, 0.5, 0.5, 1.5, 0.5, 0.5, 1.5, 0.5, 0.5, 0.5, -2.0, -2.0, -2.0, -2.0, -2.0, -2.0, -2.0, -2.0, 0.5, 3.5, 0.5, 0.5, 0.5, 0.5, 1.5, -2.0, -2.0, 0.5, -2.0, -2.0, -2.0, -2.0, 2.5, 0.5, 0.5, -2.0, -2.0, -2.0, -2.0, 1.5, 0.5, -2.0, 0.5, 0.5, -2.0, -2.0, -2.0, -2.0, -2.0, 0.5, 2.5, 0.5, 3.5, 3.5, 1.5, 0.5, 0.5, -2.0, -2.0, -2.0, -2.0, -2.0, 0.5, 0.5, -2.0, -2.0, 0.5, 0.5, 3.5, -2.0, -2.0, -2.0, -2.0, -2.0, -2.0, -2.0, 1.5, 2.5, -2.0, 0.5, 3.5, 0.5, 0.5, -2.0, -2.0, -2.0, -2.0, -2.0, -2.0], "value": [[0.3645833333333333, 0.3020833333333333, 0.3333333333333333], [0.3008130081300813, 0.3394308943089431, 0.3597560975609756], [0.3169230769230769, 0.27384615384615385, 0.40923076923076923], [0.17557251908396945, 0.3969465648854962, 0.42748091603053434], [0.11304347826086956, 0.41739130434782606, 0.46956521739130436], [0.0970873786407767, 0.3786407766990291, 0.5242718446601942], [0.07, 0.39, 0.54], [0.07446808510638298, 0.4148936170212766, 0.5106382978723404], [0.075, 0.4625, 0.4625], [0.07792207792207792, 0.4805194805194805, 0.44155844155844154], [0.05660377358490566, 0.5660377358490566, 0.37735849056603776], [0.125, 0.2916666666666667, 0.5833333333333334], [0.0, 0.0, 1.0], [0.07142857142857142, 0.14285714285714285, 0.7857142857142857], [0.0, 0.0, 1.0], [1.0, 0.0, 0.0], [0.25, 0.75, 0.0], [0.625, 0.25, 0.125], [0.41237113402061853, 0.19072164948453607, 0.39690721649484534], [0.43169398907103823, 0.20218579234972678, 0.366120218579235], [0.24369747899159663, 0.25210084033613445, 0.5042016806722689], [0.28125, 0.1875, 0.53125], [0.30337078651685395, 0.1348314606741573, 0.5617977528089888], [0.26506024096385544, 0.14457831325301204, 0.5903614457831325], [0.0, 0.21739130434782608, 0.782608695652174], [0.0, 0.15789473684210525, 0.8421052631578947], [0.0, 0.5, 0.5], [0.36666666666666664, 0.11666666666666667, 0.5166666666666667], [0.45454545454545453, 0.1590909090909091, 0.38636363636363635], [0.125, 0.0, 0.875], [0.8333333333333334, 0.0, 0.16666666666666666], [0.0, 0.8571428571428571, 0.14285714285714285], [0.08695652173913043, 0.5217391304347826, 0.391304347826087], [0.1, 0.6, 0.3], [0.125, 0.5, 0.375], [0.15384615384615385, 0.5384615384615384, 0.3076923076923077], [0.0, 0.3333333333333333, 0.6666666666666666], [0.0, 1.0, 0.0], [0.0, 0.0, 1.0], [0.78125, 0.109375, 0.109375], [0.8113207547169812, 0.1320754716981132, 0.05660377358490566], [0.6111111111111112, 0.2777777777777778, 0.1111111111111111], [0.9142857142857143, 0.05714285714285714, 0.02857142857142857], [0.9393939393939394, 0.06060606060606061, 0.0], [0.8571428571428571, 0.14285714285714285, 0.0], [1.0, 0.0, 0.0], [0.5, 0.0, 0.5], [0.6363636363636364, 0.0, 0.36363636363636365], [0.09090909090909091, 0.0, 0.9090909090909091], [0.2694610778443114, 0.46706586826347307, 0.2634730538922156], [0.27450980392156865, 0.5032679738562091, 0.2222222222222222], [0.2550335570469799, 0.5167785234899329, 0.22818791946308725], [0.27205882352941174, 0.5367647058823529, 0.19117647058823528], [0.125, 0.6805555555555556, 0.19444444444444445], [0.09090909090909091, 0.7424242424242424, 0.16666666666666666], [0.07017543859649122, 0.8245614035087719, 0.10526315789473684], [0.057692307692307696, 0.8653846153846154, 0.07692307692307693], [0.06382978723404255, 0.8936170212765957, 0.0425531914893617], [0.0, 0.6, 0.4], [0.2, 0.4, 0.4], [0.2222222222222222, 0.2222222222222222, 0.5555555555555556], [0.5, 0.0, 0.5], [0.4375, 0.375, 0.1875], [0.20689655172413793, 0.5517241379310345, 0.2413793103448276], [0.0, 0.65, 0.35], [0.6666666666666666, 0.3333333333333333, 0.0], [0.6285714285714286, 0.22857142857142856, 0.14285714285714285], [0.7307692307692307, 0.15384615384615385, 0.11538461538461539], [0.782608695652174, 0.17391304347826086, 0.043478260869565216], [0.375, 0.5, 0.125], [1.0, 0.0, 0.0], [0.3333333333333333, 0.0, 0.6666666666666666], [0.3333333333333333, 0.4444444444444444, 0.2222222222222222], [0.07692307692307693, 0.3076923076923077, 0.6153846153846154], [1.0, 0.0, 0.0], [0.21428571428571427, 0.07142857142857142, 0.7142857142857143], [0.7380952380952381, 0.08333333333333333, 0.17857142857142858], [0.7848101265822784, 0.08860759493670886, 0.12658227848101267], [0.3333333333333333, 0.2222222222222222, 0.4444444444444444], [0.8428571428571429, 0.07142857142857142, 0.08571428571428572], [0.8703703703703703, 0.018518518518518517, 0.1111111111111111], [0.9302325581395349, 0.023255813953488372, 0.046511627906976744], [0.9714285714285714, 0.02857142857142857, 0.0], [1.0, 0.0, 0.0], [0.5, 0.5, 0.0], [0.75, 0.0, 0.25], [0.6363636363636364, 0.0, 0.36363636363636365], [0.75, 0.25, 0.0], [0.0, 0.0, 1.0]]}, {"node_count": 75, "children_left": [1, 2, 3, 4, 5, 6, 7, 8, 9, 10, -1, -1, 13, -1, -1, -1, -1, -1, -1, 20, 21, 22, -1, -1, 25, -1, 27, -1, -1, 30, 31, -1, -1, -1, 35, 36, 37, 38, 39, 40, -1, -1, 43, -1, -1, -1, 47, 48, -1, 50, 51, -1, -1, -1, -1, -1, -1, 58, -1, -1, 61, 62, 63, 64, 65, 66, -1, 68, -1, -1, -1, -1, -1, -1, -1], "children_right": [60, 57, 34, 19, 18, 17, 16, 15, 12, 11, -1, -1, 14, -1, -1, -1, -1, -1, -1, 29, 24, 23, -1, -1, 26, -1, 28, -1, -1, 33, 32, -1, -1, -1, 56, 55, 46, 45, 42, 41, -1, -1, 44, -1, -1, -1, 54, 49, -1, 53, 52, -1, -1, -1, -1, -1, -1, 59, -1, -1, 74, 73, 72, 71, 70, 67, -1, 69, -1, -1, -1, -1, -1, -1, -1], "feature": [35, 34, 300, 309, 263, 214, 165, 208, 46, 299, -2, -2, 317, -2, -2, -2, -2, -2, -2, 106, 300, 217, -2, -2, 313, -2, 311, -2, -2, 41, 191, -2, -2, -2, 115, 107, 312, 153, 202, 316, -2, -2, 302, -2, -2, -2, 212, 307, -2, 155, 90, -2, -2, -2, -2, -2, -2, 33, -2, -2, 107, 66, 160, 204, 240, 308, -2, 103, -2, -2, -2, -2, -2, -2, -2], "threshold": [0.5, 0.5, 3.5, 0.5, 0.5, 0.5, 0.5, 0.5, 0.5, 0.5, -2.0, -2.0, 0.5, -2.0, -2.0, -2.0, -2.0, -2.0, -2.0, 0.5, 2.5, 0.5, -2.0, -2.0, 0.5, -2.0, 0.5, -2.0, -2.0, 0.5, 0.5, -2.0, -2.0, -2.0, 2.5, 3.5, 0.5, 0.5, 0.5, 0.5, -2.0, -2.0, 2.5, -2.0, -2.0, -2.0, 0.5, 0.5, -2.0, 0.5, 0.5, -2.0, -2.0, -2.0, -2.0, -2.0, -2.0, 0.5, -2.0, -2.0, 1.5, 0.5, 0.5, 1.5, 0.5, 0.5, -2.0, 0.5, -2.0, -2.0, -2.0, -2.0, -2.0, -2.0, -2.0], "value": [[0.3402777777777778, 0.3454861111111111, 0.3142361111111111], [0.3084886128364389, 0.34368530020703936, 0.34782608695652173], [0.31798245614035087, 0.36403508771929827, 0.31798245614035087], [0.15463917525773196, 0.41580756013745707, 0.42955326460481097], [0.07608695652173914, 0.5054347826086957, 0.41847826086956524], [0.07428571428571429, 0.5257142857142857, 0.4], [0.08125, 0.55625, 0.3625], [0.07534246575342465, 0.5958904109589042, 0.3287671232876712], [0.09016393442622951, 0.5491803278688525, 0.36065573770491804], [0.0707070707070707, 0.5050505050505051, 0.42424242424242425], [0.07446808510638298, 0.5319148936170213, 0.39361702127659576], [0.0, 0.0, 1.0], [0.17391304347826086, 0.7391304347826086, 0.08695652173913043], [0.0, 0.8, 0.2], [0.3076923076923077, 0.6923076923076923, 0.0], [0.0, 0.8333333333333334, 0.16666666666666666], [0.14285714285714285, 0.14285714285714285, 0.7142857142857143], [0.0, 0.2, 0.8], [0.1111111111111111, 0.1111111111111111, 0.7777777777777778], [0.2897196261682243, 0.2616822429906542, 0.4485981308411215], [0.2702702702702703, 0.1891891891891892, 0.5405405405405406], [0.09375, 0.1875, 0.71875], [0.125, 0.20833333333333334, 0.6666666666666666], [0.0, 0.125, 0.875], [0.40476190476190477, 0.19047619047619047, 0.40476190476190477], [0.25, 0.125, 0.625], [0.5, 0.23076923076923078, 0.2692307692307692], [0.18181818181818182, 0.5454545454545454, 0.2727272727272727], [0.7333333333333333, 0.0, 0.26666666666666666], [0.3333333333333333, 0.42424242424242425, 0.24242424242424243], [0.4074074074074074, 0.2962962962962963, 0.2962962962962963], [0.2631578947368421, 0.42105263157894735, 0.3157894736842105], [0.75, 0.0, 0.25], [0.0, 1.0, 0.0], [0.6060606060606061, 0.2727272727272727, 0.12121212121212122], [0.6172839506172839, 0.25925925925925924, 0.12345679012345678], [0.6410256410256411, 0.23076923076923078, 0.1282051282051282], [0.46551724137931033, 0.3448275862068966, 0.1896551724137931], [0.5625, 0.2916666666666667, 0.14583333333333334], [0.3333333333333333, 0.38095238095238093, 0.2857142857142857], [0.46153846153846156, 0.15384615384615385, 0.38461538461538464], [0.125, 0.75, 0.125], [0.7407407407407407, 0.2222222222222222, 0.037037037037037035], [0.0, 1.0, 0.0], [0.8695652173913043, 0.08695652173913043, 0.043478260869565216], [0.0, 0.6, 0.4], [0.7448979591836735, 0.16326530612244897, 0.09183673469387756], [0.7093023255813954, 0.18604651162790697, 0.10465116279069768], [0.125, 0.375, 0.5], [0.7692307692307693, 0.16666666666666666, 0.0641025641025641], [0.8169014084507042, 0.1267605633802817, 0.056338028169014086], [0.8636363636363636, 0.07575757575757576, 0.06060606060606061], [0.2, 0.8, 0.0], [0.2857142857142857, 0.5714285714285714, 0.14285714285714285], [1.0, 0.0, 0.0], [0.0, 1.0, 0.0], [0.0, 1.0, 0.0], [0.14814814814814814, 0.0, 0.8518518518518519], [0.05263157894736842, 0.0, 0.9473684210526315], [0.375, 0.0, 0.625], [0.5053763440860215, 0.3548387096774194, 0.13978494623655913], [0.4264705882352941, 0.39705882352941174, 0.17647058823529413], [0.3709677419354839, 0.43548387096774194, 0.1935483870967742], [0.36363636363636365, 0.4909090909090909, 0.14545454545454545], [0.41304347826086957, 0.41304347826086957, 0.17391304347826086], [0.5, 0.2647058823529412, 0.23529411764705882], [0.2727272727272727, 0.2727272727272727, 0.45454545454545453], [0.6086956521739131, 0.2608695652173913, 0.13043478260869565], [0.3333333333333333, 0.6666666666666666, 0.0], [0.7058823529411765, 0.11764705882352941, 0.17647058823529413], [0.16666666666666666, 0.8333333333333334, 0.0], [0.1111111111111111, 0.8888888888888888, 0.0], [0.42857142857142855, 0.0, 0.5714285714285714], [1.0, 0.0, 0.0], [0.72, 0.24, 0.04]]}, {"node_count": 83, "children_left": [1, 2, 3, 4, 5, 6, 7, 8, 9, 10, -1, -1, 13, -1, -1, -1, -1, 18, 19, -1, -1, -1, 23, 24, -1, -1, -1, 28, 29, 30, 31, -1, -1, -1, 35, 36, -1, -1, -1, 40, 41, 42, 43, -1, -1, 46, 47, -1, -1, -1, -1, -1, 53, 54, 55, 56, 57, 58, 59, -1, -1, -1, -1, -1, -1, -1, 67, 68, -1, -1, -1, 72, 73, -1, 75, 76, -1, -1, -1, -1, 81, -1, -1], "children_right": [80, 71, 52, 27, 22, 17, 16, 15, 12, 11, -1, -1, 14, -1, -1, -1, -1, 21, 20, -1, -1, -1, 26, 25, -1, -1, -1, 39, 34, 33, 32, -1, -1, -1, 38, 37, -1, -1, -1, 51, 50, 45, 44, -1, -1, 49, 48, -1, -1, -1, -1, -1, 66, 65, 64, 63, 62, 61, 60, -1, -1, -1, -1, -1, -1, -1, 70, 69, -1, -1, -1, 79, 74, -1, 78, 77, -1, -1, -1, -1, 82, -1, -1], "feature": [90, 45, 41, 303, 242, 106, 112, 3, 102, 105, -2, -2, 207, -2, -2, -2, -2, 255, 307, -2, -2, -2, 116, 310, -2, -2, -2, 310, 101, 192, 105, -2, -2, -2, 9, 190, -2, -2, -2, 183, 185, 101, 236, -2, -2, 291, 144, -2, -2, -2, -2, -2, 310, 275, 68, 308, 272, 279, 112, -2, -2, -2, -2, -2, -2, -2, 241, 300, -2, -2, -2, 311, 312, -2, 4, 121, -2, -2, -2, -2, 200, -2, -2], "threshold": [0.5, 0.5, 0.5, 3.5, 0.5, 0.5, 0.5, 1.5, 0.5, 0.5, -2.0, -2.0, 0.5, -2.0, -2.0, -2.0, -2.0, 0.5, 0.5, -2.0, -2.0, -2.0, 0.5, 0.5, -2.0, -2.0, -2.0, 0.5, 1.5, 0.5, 0.5, -2.0, -2.0, -2.0, 0.5, 0.5, -2.0, -2.0, -2.0, 1.5, 0.5, 0.5, 0.5, -2.0, -2.0, 0.5, 1.5, -2.0, -2.0, -2.0, -2.0, -2.0, 0.5, 0.5, 0.5, 0.5, 0.5, 0.5, 0.5, -2.0, -2.0, -2.0, -2.0, -2.0, -2.0, -2.0, 0.5, 3.5, -2.0, -2.0, -2.0, 0.5, 0.5, -2.0, 1.5, 0.5, -2.0, -2.0, -2.0, -2.0, 2.5, -2.0, -2.0], "value": [[0.3350694444444444, 0.3333333333333333, 0.3315972222222222], [0.34186471663619744, 0.3162705667276051, 0.34186471663619744], [0.298728813559322, 0.3432203389830508, 0.3580508474576271], [0.3203125, 0.2890625, 0.390625], [0.21929824561403508, 0.30701754385964913, 0.47368421052631576], [0.16230366492146597, 0.32460732984293195, 0.5130890052356021], [0.08888888888888889, 0.34814814814814815, 0.562962962962963], [0.10256410256410256, 0.29914529914529914, 0.5982905982905983], [0.07272727272727272, 0.3, 0.6272727272727273], [0.043478260869565216, 0.41304347826086957, 0.5434782608695652], [0.0, 0.6363636363636364, 0.36363636363636365], [0.08333333333333333, 0.20833333333333334, 0.7083333333333334], [0.09375, 0.21875, 0.6875], [0.02, 0.2, 0.78], [0.35714285714285715, 0.2857142857142857, 0.35714285714285715], [0.5714285714285714, 0.2857142857142857, 0.14285714285714285], [0.0, 0.6666666666666666, 0.3333333333333333], [0.3392857142857143, 0.26785714285714285, 0.39285714285714285], [0.20930232558139536, 0.32558139534883723, 0.46511627906976744], [0.0, 0.391304347826087, 0.6086956521739131], [0.45, 0.25, 0.3], [0.7692307692307693, 0.07692307692307693, 0.15384615384615385], [0.5135135135135135, 0.21621621621621623, 0.2702702702702703], [0.2857142857142857, 0.38095238095238093, 0.3333333333333333], [0.0, 0.2857142857142857, 0.7142857142857143], [0.42857142857142855, 0.42857142857142855, 0.14285714285714285], [0.8125, 0.0, 0.1875], [0.46794871794871795, 0.26282051282051283, 0.2692307692307692], [0.2753623188405797, 0.391304347826087, 0.3333333333333333], [0.14705882352941177, 0.6176470588235294, 0.23529411764705882], [0.1111111111111111, 0.5925925925925926, 0.2962962962962963], [0.17647058823529413, 0.47058823529411764, 0.35294117647058826], [0.0, 0.8, 0.2], [0.2857142857142857, 0.7142857142857143, 0.0], [0.4, 0.17142857142857143, 0.42857142857142855], [0.4642857142857143, 0.21428571428571427, 0.32142857142857145], [0.52, 0.24, 0.24], [0.0, 0.0, 1.0], [0.14285714285714285, 0.0, 0.8571428571428571], [0.6206896551724138, 0.16091954022988506, 0.21839080459770116], [0.6506024096385542, 0.14457831325301204, 0.20481927710843373], [0.7027027027027027, 0.16216216216216217, 0.13513513513513514], [0.4, 0.3, 0.3], [0.25, 0.375, 0.375], [1.0, 0.0, 0.0], [0.8148148148148148, 0.1111111111111111, 0.07407407407407407], [0.8461538461538461, 0.09615384615384616, 0.057692307692307696], [0.8979591836734694, 0.061224489795918366, 0.04081632653061224], [0.0, 0.6666666666666666, 0.3333333333333333], [0.0, 0.5, 0.5], [0.2222222222222222, 0.0, 0.7777777777777778], [0.0, 0.5, 0.5], [0.20454545454545456, 0.5795454545454546, 0.2159090909090909], [0.05, 0.7166666666666667, 0.23333333333333334], [0.038461538461538464, 0.7692307692307693, 0.19230769230769232], [0.04081632653061224, 0.7959183673469388, 0.16326530612244897], [0.0, 0.8260869565217391, 0.17391304347826086], [0.0, 0.868421052631579, 0.13157894736842105], [0.0, 0.9166666666666666, 0.08333333333333333], [0.0, 0.9642857142857143, 0.03571428571428571], [0.0, 0.75, 0.25], [0.0, 0.0, 1.0], [0.0, 0.625, 0.375], [0.6666666666666666, 0.3333333333333333, 0.0], [0.0, 0.3333333333333333, 0.6666666666666666], [0.125, 0.375, 0.5], [0.5357142857142857, 0.2857142857142857, 0.17857142857142858], [0.6086956521739131, 0.17391304347826086, 0.21739130434782608], [0.125, 0.25, 0.625], [0.8666666666666667, 0.13333333333333333, 0.0], [0.2, 0.8, 0.0], [0.6133333333333333, 0.14666666666666667, 0.24], [0.5490196078431373, 0.11764705882352941, 0.3333333333333333], [0.29411764705882354, 0.17647058823529413, 0.5294117647058824], [0.6764705882352942, 0.08823529411764706, 0.23529411764705882], [0.7586206896551724, 0.0, 0.2413793103448276], [0.8695652173913043, 0.0, 0.13043478260869565], [0.3333333333333333, 0.0, 0.6666666666666666], [0.2, 0.6, 0.2], [0.75, 0.20833333333333334, 0.041666666666666664], [0.20689655172413793, 0.6551724137931034, 0.13793103448275862], [0.047619047619047616, 0.7619047619047619, 0.19047619047619047], [0.625, 0.375, 0.0]]}, {"node_count": 97, "children_left": [1, 2, 3, 4, 5, 6, 7, 8, 9, 10, -1, -1, -1, 14, -1, -1, -1, -1, -1, -1, -1, 22, 23, 24, 25, 26, 27, 28, 29, -1, -1, -1, -1, -1, -1, 36, -1, -1, 39, 40, 41, -1, -1, 44, 45, 46, 47, -1, -1, -1, -1, -1, -1, -1, 55, 56, 57, 58, 59, 60, 61, 62, 63, -1, -1, -1, -1, -1, -1, -1, -1, 72, 73, 74, 75, 76, 77, -1, -1, -1, -1, -1, -1, 84, 85, 86, 87, 88, 89, -1, -1, -1, -1, -1, -1, -1, -1], "children_right": [54, 21, 20, 19, 18, 17, 16, 13, 12, 11, -1, -1, -1, 15, -1, -1, -1, -1, -1, -1, -1, 53, 38, 35, 34, 33, 32, 31, 30, -1, -1, -1, -1, -1, -1, 37, -1, -1, 52, 43, 42, -1, -1, 51, 50, 49, 48, -1, -1, -1, -1, -1, -1, -1, 96, 71, 70, 69, 68, 67, 66, 65, 64, -1, -1, -1, -1, -1, -1, -1, -1, 83, 82, 81, 80, 79, 78, -1, -1, -1, -1, -1, -1, 95, 94, 93, 92, 91, 90, -1, -1, -1, -1, -1, -1, -1, -1], "feature": [303, 101, 300, 152, 81, 45, 131, 306, 5, 130, -2, -2, -2, 302, -2, -2, -2, -2, -2, -2, -2, 204, 310, 313, 102, 53, 309, 314, 234, -2, -2, -2, -2, -2, -2, 318, -2, -2, 60, 104, 316, -2, -2, 105, 213, 121, 203, -2, -2, -2, -2, -2, -2, -2, 52, 307, 67, 128, 200, 219, 199, 13, 41, -2, -2, -2, -2, -2, -2, -2, -2, 300, 207, 27, 302, 200, 3, -2, -2, -2, -2, -2, -2, 106, 116, 211, 8, 238, 7, -2, -2, -2, -2, -2, -2, -2, -2], "threshold": [3.5, 0.5, 4.5, 0.5, 0.5, 0.5, 0.5, 0.5, 1.5, 0.5, -2.0, -2.0, -2.0, 2.5, -2.0, -2.0, -2.0, -2.0, -2.0, -2.0, -2.0, 1.5, 0.5, 0.5, 2.5, 0.5, 0.5, 0.5, 0.5, -2.0, -2.0, -2.0, -2.0, -2.0, -2.0, 0.5, -2.0, -2.0, 0.5, 0.5, 0.5, -2.0, -2.0, 1.5, 0.5, 0.5, 1.5, -2.0, -2.0, -2.0, -2.0, -2.0, -2.0, -2.0, 0.5, 0.5, 0.5, 1.5, 4.5, 0.5, 0.5, 0.5, 0.5, -2.0, -2.0, -2.0, -2.0, -2.0, -2.0, -2.0, -2.0, 3.5, 0.5, 0.5, 3.5, 2.5, 0.5, -2.0, -2.0, -2.0, -2.0, -2.0, -2.0, 1.5, 1.5, 1.5, 1.5, 0.5, 0.5, -2.0, -2.0, -2.0, -2.0, -2.0, -2.0, -2.0, -2.0], "value": [[0.3333333333333333, 0.3385416666666667, 0.328125], [0.20710059171597633, 0.39349112426035504, 0.3994082840236686], [0.11038961038961038, 0.474025974025974, 0.4155844155844156], [0.0625, 0.4930555555555556, 0.4444444444444444], [0.06569343065693431, 0.46715328467153283, 0.46715328467153283], [0.06716417910447761, 0.47761194029850745, 0.4552238805970149], [0.03225806451612903, 0.5080645161290323, 0.4596774193548387], [0.03389830508474576, 0.4830508474576271, 0.4830508474576271], [0.044444444444444446, 0.4, 0.5555555555555556], [0.03529411764705882, 0.3764705882352941, 0.5882352941176471], [0.02631578947368421, 0.35526315789473684, 0.618421052631579], [0.1111111111111111, 0.5555555555555556, 0.3333333333333333], [0.2, 0.8, 0.0], [0.0, 0.75, 0.25], [0.0, 0.9047619047619048, 0.09523809523809523], [0.0, 0.2857142857142857, 0.7142857142857143], [0.0, 1.0, 0.0], [0.5, 0.1, 0.4], [0.0, 0.0, 1.0], [0.0, 1.0, 0.0], [0.8, 0.2, 0.0], [0.28804347826086957, 0.32608695652173914, 0.3858695652173913], [0.2485207100591716, 0.3431952662721893, 0.40828402366863903], [0.12371134020618557, 0.4329896907216495, 0.44329896907216493], [0.09230769230769231, 0.5846153846153846, 0.3230769230769231], [0.10909090909090909, 0.6363636363636364, 0.2545454545454545], [0.11320754716981132, 0.660377358490566, 0.22641509433962265], [0.09523809523809523, 0.7619047619047619, 0.14285714285714285], [0.12121212121212122, 0.696969696969697, 0.18181818181818182], [0.0, 0.7777777777777778, 0.2222222222222222], [0.6666666666666666, 0.3333333333333333, 0.0], [0.0, 1.0, 0.0], [0.18181818181818182, 0.2727272727272727, 0.5454545454545454], [0.0, 0.0, 1.0], [0.0, 0.3, 0.7], [0.1875, 0.125, 0.6875], [0.08333333333333333, 0.0, 0.9166666666666666], [0.5, 0.5, 0.0], [0.4166666666666667, 0.2222222222222222, 0.3611111111111111], [0.38235294117647056, 0.23529411764705882, 0.38235294117647056], [0.2727272727272727, 0.3939393939393939, 0.3333333333333333], [0.23529411764705882, 0.5882352941176471, 0.17647058823529413], [0.3125, 0.1875, 0.5], [0.4857142857142857, 0.08571428571428572, 0.42857142857142855], [0.53125, 0.09375, 0.375], [0.6153846153846154, 0.11538461538461539, 0.2692307692307692], [0.6818181818181818, 0.13636363636363635, 0.18181818181818182], [0.7894736842105263, 0.15789473684210525, 0.05263157894736842], [0.0, 0.0, 1.0], [0.25, 0.0, 0.75], [0.16666666666666666, 0.0, 0.8333333333333334], [0.0, 0.0, 1.0], [1.0, 0.0, 0.0], [0.7333333333333333, 0.13333333333333333, 0.13333333333333333], [0.5126050420168067, 0.2605042016806723, 0.226890756302521], [0.5422222222222223, 0.2311111111111111, 0.22666666666666666], [0.20634920634920634, 0.4444444444444444, 0.3492063492063492], [0.12727272727272726, 0.4909090909090909, 0.38181818181818183], [0.1, 0.54, 0.36], [0.06521739130434782, 0.5869565217391305, 0.34782608695652173], [0.07692307692307693, 0.5128205128205128, 0.41025641025641024], [0.09090909090909091, 0.6060606060606061, 0.30303030303030304], [0.0, 0.6666666666666666, 0.3333333333333333], [0.0, 0.5, 0.5], [0.0, 1.0, 0.0], [0.3333333333333333, 0.4444444444444444, 0.2222222222222222], [0.0, 0.0, 1.0], [0.0, 1.0, 0.0], [0.5, 0.0, 0.5], [0.4, 0.0, 0.6], [0.75, 0.125, 0.125], [0.6728395061728395, 0.14814814814814814, 0.17901234567901234], [0.4666666666666667, 0.22666666666666666, 0.30666666666666664], [0.3584905660377358, 0.32075471698113206, 0.32075471698113206], [0.32, 0.34, 0.34], [0.40625, 0.46875, 0.125], [0.5, 0.38461538461538464, 0.11538461538461539], [0.38095238095238093, 0.47619047619047616, 0.14285714285714285], [1.0, 0.0, 0.0], [0.0, 0.8333333333333334, 0.16666666666666666], [0.16666666666666666, 0.1111111111111111, 0.7222222222222222], [1.0, 0.0, 0.0], [0.7272727272727273, 0.0, 0.2727272727272727], [0.8505747126436781, 0.08045977011494253, 0.06896551724137931], [0.9066666666666666, 0.05333333333333334, 0.04], [0.9420289855072463, 0.028985507246376812, 0.028985507246376812], [0.9538461538461539, 0.015384615384615385, 0.03076923076923077], [0.9672131147540983, 0.01639344262295082, 0.01639344262295082], [0.9821428571428571, 0.0, 0.017857142857142856], [1.0, 0.0, 0.0], [0.9444444444444444, 0.0, 0.05555555555555555], [0.8, 0.2, 0.0], [0.75, 0.0, 0.25], [0.75, 0.25, 0.0], [0.5, 0.3333333333333333, 0.16666666666666666], [0.5, 0.25, 0.25], [0.0, 0.7692307692307693, 0.23076923076923078]]}, {"node_count": 95, "children_left": [1, 2, 3, 4, 5, 6, 7, 8, 9, 10, -1, -1, -1, -1, -1, 16, 17, 18, 19, -1, -1, -1, -1, -1, -1, 26, 27, -1, -1, 30, 31, 32, 33, -1, -1, -1, -1, -1, 39, 40, 41, 42, 43, 44, 45, -1, -1, -1, -1, -1, -1, -1, 53, 54, -1, -1, -1, 58, 59, 60, 61, 62, -1, -1, -1, -1, -1, 68, 69, 70, 71, -1, -1, -1, 75, 76, -1, -1, -1, -1, 81, 82, 83, 84, 85, -1, -1, -1, 89, -1, 91, -1, -1, -1, -1], "children_right": [80, 57, 38, 25, 24, 15, 14, 13, 12, 11, -1, -1, -1, -1, -1, 23, 22, 21, 20, -1, -1, -1, -1, -1, -1, 29, 28, -1, -1, 37, 36, 35, 34, -1, -1, -1, -1, -1, 52, 51, 50, 49, 48, 47, 46, -1, -1, -1, -1, -1, -1, -1, 56, 55, -1, -1, -1, 67, 66, 65, 64, 63, -1, -1, -1, -1, -1, 79, 74, 73, 72, -1, -1, -1, 78, 77, -1, -1, -1, -1, 94, 93, 88, 87, 86, -1, -1, -1, 90, -1, 92, -1, -1, -1, -1], "feature": [250, 302, 200, 305, 181, 101, 303, 204, 33, 311, -2, -2, -2, -2, -2, 311, 0, 35, 120, -2, -2, -2, -2, -2, -2, 300, 213, -2, -2, 118, 105, 184, 308, -2, -2, -2, -2, -2, 101, 8, 270, 126, 123, 122, 301, -2, -2, -2, -2, -2, -2, -2, 144, 108, -2, -2, -2, 310, 139, 231, 0, 120, -2, -2, -2, -2, -2, 152, 305, 15, 57, -2, -2, -2, 38, 115, -2, -2, -2, -2, 252, 19, 300, 2, 306, -2, -2, -2, 102, -2, 153, -2, -2, -2, -2], "threshold": [0.5, 3.5, 1.5, 0.5, 0.5, 0.5, 3.5, 0.5, 0.5, 0.5, -2.0, -2.0, -2.0, -2.0, -2.0, 0.5, 0.5, 0.5, 0.5, -2.0, -2.0, -2.0, -2.0, -2.0, -2.0, 2.5, 0.5, -2.0, -2.0, 0.5, 1.5, 0.5, 0.5, -2.0, -2.0, -2.0, -2.0, -2.0, 2.5, 2.5, 0.5, 1.5, 1.5, 0.5, 1.5, -2.0, -2.0, -2.0, -2.0, -2.0, -2.0, -2.0, 1.5, 0.5, -2.0, -2.0, -2.0, 0.5, 0.5, 0.5, 1.5, 0.5, -2.0, -2.0, -2.0, -2.0, -2.0, 0.5, 0.5, 0.5, 0.5, -2.0, -2.0, -2.0, 0.5, 0.5, -2.0, -2.0, -2.0, -2.0, 0.5, 0.5, 3.5, 0.5, 0.5, -2.0, -2.0, -2.0, 1.5, -2.0, 0.5, -2.0, -2.0, -2.0, -2.0], "value": [[0.3315972222222222, 0.3715277777777778, 0.296875], [0.29850746268656714, 0.40085287846481876, 0.3006396588486141], [0.27405247813411077, 0.46647230320699706, 0.2594752186588921], [0.21777777777777776, 0.48, 0.3022222222222222], [0.23809523809523808, 0.30952380952380953, 0.4523809523809524], [0.21311475409836064, 0.319672131147541, 0.4672131147540984], [0.06, 0.5, 0.44], [0.04878048780487805, 0.43902439024390244, 0.5121951219512195], [0.06451612903225806, 0.5161290322580645, 0.41935483870967744], [0.07692307692307693, 0.46153846153846156, 0.46153846153846156], [0.0, 0.5454545454545454, 0.45454545454545453], [0.5, 0.0, 0.5], [0.0, 0.8, 0.2], [0.0, 0.2, 0.8], [0.1111111111111111, 0.7777777777777778, 0.1111111111111111], [0.3194444444444444, 0.19444444444444445, 0.4861111111111111], [0.23214285714285715, 0.23214285714285715, 0.5357142857142857], [0.3235294117647059, 0.29411764705882354, 0.38235294117647056], [0.38461538461538464, 0.15384615384615385, 0.46153846153846156], [0.2727272727272727, 0.18181818181818182, 0.5454545454545454], [1.0, 0.0, 0.0], [0.125, 0.75, 0.125], [0.09090909090909091, 0.13636363636363635, 0.7727272727272727], [0.625, 0.0625, 0.3125], [1.0, 0.0, 0.0], [0.1919191919191919, 0.696969696969697, 0.1111111111111111], [0.0, 0.9183673469387755, 0.08163265306122448], [0.0, 1.0, 0.0], [0.0, 0.42857142857142855, 0.5714285714285714], [0.38, 0.48, 0.14], [0.4722222222222222, 0.3888888888888889, 0.1388888888888889], [0.5666666666666667, 0.3, 0.13333333333333333], [0.6296296296296297, 0.2222222222222222, 0.14814814814814814], [0.42857142857142855, 0.42857142857142855, 0.14285714285714285], [0.8461538461538461, 0.0, 0.15384615384615385], [0.0, 1.0, 0.0], [0.0, 0.8333333333333334, 0.16666666666666666], [0.14285714285714285, 0.7142857142857143, 0.14285714285714285], [0.3813559322033898, 0.4406779661016949, 0.17796610169491525], [0.24242424242424243, 0.5909090909090909, 0.16666666666666666], [0.1935483870967742, 0.6290322580645161, 0.1774193548387097], [0.15789473684210525, 0.6842105263157895, 0.15789473684210525], [0.12727272727272726, 0.7090909090909091, 0.16363636363636364], [0.09433962264150944, 0.7358490566037735, 0.16981132075471697], [0.09090909090909091, 0.7727272727272727, 0.13636363636363635], [0.0, 0.25, 0.75], [0.1, 0.825, 0.075], [0.1111111111111111, 0.5555555555555556, 0.3333333333333333], [1.0, 0.0, 0.0], [1.0, 0.0, 0.0], [0.6, 0.0, 0.4], [1.0, 0.0, 0.0], [0.5576923076923077, 0.25, 0.19230769230769232], [0.6829268292682927, 0.17073170731707318, 0.14634146341463414], [0.3684210526315789, 0.3684210526315789, 0.2631578947368421], [0.9545454545454546, 0.0, 0.045454545454545456], [0.09090909090909091, 0.5454545454545454, 0.36363636363636365], [0.36507936507936506, 0.2222222222222222, 0.4126984126984127], [0.16129032258064516, 0.3064516129032258, 0.532258064516129], [0.14035087719298245, 0.2807017543859649, 0.5789473684210527], [0.175, 0.125, 0.7], [0.11538461538461539, 0.0, 0.8846153846153846], [0.05555555555555555, 0.0, 0.9444444444444444], [0.25, 0.0, 0.75], [0.2857142857142857, 0.35714285714285715, 0.35714285714285715], [0.058823529411764705, 0.6470588235294118, 0.29411764705882354], [0.4, 0.6, 0.0], [0.5625, 0.140625, 0.296875], [0.6101694915254238, 0.0847457627118644, 0.3050847457627119], [0.37037037037037035, 0.1111111111111111, 0.5185185185185185], [0.2916666666666667, 0.125, 0.5833333333333334], [0.35, 0.15, 0.5], [0.0, 0.0, 1.0], [1.0, 0.0, 0.0], [0.8125, 0.0625, 0.125], [0.7391304347826086, 0.08695652173913043, 0.17391304347826086], [0.7777777777777778, 0.0, 0.2222222222222222], [0.6, 0.4, 0.0], [1.0, 0.0, 0.0], [0.0, 0.8, 0.2], [0.4766355140186916, 0.24299065420560748, 0.2803738317757009], [0.5274725274725275, 0.18681318681318682, 0.2857142857142857], [0.46153846153846156, 0.21794871794871795, 0.32051282051282054], [0.27906976744186046, 0.23255813953488372, 0.4883720930232558], [0.4230769230769231, 0.2692307692307692, 0.3076923076923077], [0.6666666666666666, 0.06666666666666667, 0.26666666666666666], [0.09090909090909091, 0.5454545454545454, 0.36363636363636365], [0.058823529411764705, 0.17647058823529413, 0.7647058823529411], [0.6857142857142857, 0.2, 0.11428571428571428], [0.875, 0.0625, 0.0625], [0.5263157894736842, 0.3157894736842105, 0.15789473684210525], [0.625, 0.25, 0.125], [0.0, 0.6666666666666666, 0.3333333333333333], [0.9230769230769231, 0.0, 0.07692307692307693], [0.1875, 0.5625, 0.25]]}, {"node_count": 85, "children_left": [1, 2, 3, 4, 5, 6, 7, 8, 9, 10, -1, -1, -1, -1, -1, 16, 17, 18, 19, -1, -1, -1, -1, 24, -1, 26, -1, -1, -1, 30, 31, 32, 33, -1, -1, -1, -1, -1, 39, 40, 41, -1, -1, -1, -1, 46, -1, -1, 49, 50, 51, 52, 53, 54, -1, -1, -1, -1, -1, 60, -1, -1, 63, 64, 65, 66, 67, 68, 69, 70, -1, -1, 73, -1, -1, -1, 77, -1, -1, 80, -1, -1, -1, -1, -1], "children_right": [48, 45, 38, 29, 28, 15, 14, 13, 12, 11, -1, -1, -1, -1, -1, 23, 22, 21, 20, -1, -1, -1, -1, 25, -1, 27, -1, -1, -1, 37, 36, 35, 34, -1, -1, -1, -1, -1, 44, 43, 42, -1, -1, -1, -1, 47, -1, -1, 62, 59, 58, 57, 56, 55, -1, -1, -1, -1, -1, 61, -1, -1, 84, 83, 82, 79, 76, 75, 72, 71, -1, -1, 74, -1, -1, -1, 78, -1, -1, 81, -1, -1, -1, -1, -1], "feature": [310, 35, 181, 41, 98, 303, 9, 127, 113, 316, -2, -2, -2, -2, -2, 202, 201, 301, 317, -2, -2, -2, -2, 2, -2, 14, -2, -2, -2, 116, 303, 143, 4, -2, -2, -2, -2, -2, 187, 36, 202, -2, -2, -2, -2, 10, -2, -2, 103, 205, 301, 124, 66, 18, -2, -2, -2, -2, -2, 303, -2, -2, 144, 274, 10, 178, 144, 105, 307, 5, -2, -2, 291, -2, -2, -2, 206, -2, -2, 110, -2, -2, -2, -2, -2], "threshold": [0.5, 0.5, 0.5, 0.5, 0.5, 2.5, 0.5, 1.5, 0.5, 0.5, -2.0, -2.0, -2.0, -2.0, -2.0, 0.5, 1.5, 3.5, 0.5, -2.0, -2.0, -2.0, -2.0, 0.5, -2.0, 0.5, -2.0, -2.0, -2.0, 0.5, 3.5, 0.5, 0.5, -2.0, -2.0, -2.0, -2.0, -2.0, 0.5, 0.5, 0.5, -2.0, -2.0, -2.0, -2.0, 0.5, -2.0, -2.0, 0.5, 0.5, 3.5, 0.5, 0.5, 0.5, -2.0, -2.0, -2.0, -2.0, -2.0, 4.5, -2.0, -2.0, 1.5, 0.5, 2.5, 0.5, 0.5, 1.5, 0.5, 1.5, -2.0, -2.0, 0.5, -2.0, -2.0, -2.0, 1.5, -2.0, -2.0, 0.5, -2.0, -2.0, -2.0, -2.0, -2.0], "value": [[0.3315972222222222, 0.3263888888888889, 0.3420138888888889], [0.15217391304347827, 0.41304347826086957, 0.43478260869565216], [0.15306122448979592, 0.38095238095238093, 0.46598639455782315], [0.13043478260869565, 0.36363636363636365, 0.5059288537549407], [0.15228426395939088, 0.29949238578680204, 0.5482233502538071], [0.13089005235602094, 0.3089005235602094, 0.5602094240837696], [0.0, 0.43209876543209874, 0.5679012345679012], [0.0, 0.4794520547945205, 0.5205479452054794], [0.0, 0.43283582089552236, 0.5671641791044776], [0.0, 0.4666666666666667, 0.5333333333333333], [0.0, 0.2631578947368421, 0.7368421052631579], [0.0, 0.8181818181818182, 0.18181818181818182], [0.0, 0.14285714285714285, 0.8571428571428571], [0.0, 1.0, 0.0], [0.0, 0.0, 1.0], [0.22727272727272727, 0.21818181818181817, 0.5545454545454546], [0.1206896551724138, 0.22413793103448276, 0.6551724137931034], [0.16216216216216217, 0.32432432432432434, 0.5135135135135135], [0.1111111111111111, 0.4444444444444444, 0.4444444444444444], [0.16666666666666666, 0.2777777777777778, 0.5555555555555556], [0.0, 0.7777777777777778, 0.2222222222222222], [0.3, 0.0, 0.7], [0.047619047619047616, 0.047619047619047616, 0.9047619047619048], [0.34615384615384615, 0.21153846153846154, 0.4423076923076923], [0.5, 0.25, 0.25], [0.21428571428571427, 0.17857142857142858, 0.6071428571428571], [0.2727272727272727, 0.22727272727272727, 0.5], [0.0, 0.0, 1.0], [0.8333333333333334, 0.0, 0.16666666666666666], [0.05357142857142857, 0.5892857142857143, 0.35714285714285715], [0.06666666666666667, 0.6888888888888889, 0.24444444444444444], [0.0, 0.7857142857142857, 0.21428571428571427], [0.0, 0.8695652173913043, 0.13043478260869565], [0.0, 0.9411764705882353, 0.058823529411764705], [0.0, 0.6666666666666666, 0.3333333333333333], [0.0, 0.4, 0.6], [0.17647058823529413, 0.5294117647058824, 0.29411764705882354], [0.0, 0.18181818181818182, 0.8181818181818182], [0.2926829268292683, 0.4878048780487805, 0.21951219512195122], [0.17647058823529413, 0.5588235294117647, 0.2647058823529412], [0.03571428571428571, 0.6428571428571429, 0.32142857142857145], [0.05555555555555555, 0.4444444444444444, 0.5], [0.0, 1.0, 0.0], [0.8333333333333334, 0.16666666666666666, 0.0], [0.8571428571428571, 0.14285714285714285, 0.0], [0.14285714285714285, 0.75, 0.10714285714285714], [0.08, 0.84, 0.08], [0.6666666666666666, 0.0, 0.3333333333333333], [0.5590551181102362, 0.21653543307086615, 0.22440944881889763], [0.373134328358209, 0.34328358208955223, 0.2835820895522388], [0.5384615384615384, 0.20512820512820512, 0.2564102564102564], [0.4, 0.26666666666666666, 0.3333333333333333], [0.23809523809523808, 0.3333333333333333, 0.42857142857142855], [0.15789473684210525, 0.3684210526315789, 0.47368421052631576], [0.1875, 0.4375, 0.375], [0.0, 0.0, 1.0], [1.0, 0.0, 0.0], [0.7777777777777778, 0.1111111111111111, 0.1111111111111111], [1.0, 0.0, 0.0], [0.14285714285714285, 0.5357142857142857, 0.32142857142857145], [0.19047619047619047, 0.6190476190476191, 0.19047619047619047], [0.0, 0.2857142857142857, 0.7142857142857143], [0.6256684491978609, 0.1711229946524064, 0.20320855614973263], [0.6842105263157895, 0.14619883040935672, 0.1695906432748538], [0.7055214723926381, 0.12269938650306748, 0.17177914110429449], [0.68, 0.13333333333333333, 0.18666666666666668], [0.6050420168067226, 0.16806722689075632, 0.226890756302521], [0.5510204081632653, 0.19387755102040816, 0.25510204081632654], [0.6071428571428571, 0.15476190476190477, 0.23809523809523808], [0.3939393939393939, 0.21212121212121213, 0.3939393939393939], [0.4482758620689655, 0.10344827586206896, 0.4482758620689655], [0.0, 1.0, 0.0], [0.7450980392156863, 0.11764705882352941, 0.13725490196078433], [0.7755102040816326, 0.12244897959183673, 0.10204081632653061], [0.0, 0.0, 1.0], [0.21428571428571427, 0.42857142857142855, 0.35714285714285715], [0.8571428571428571, 0.047619047619047616, 0.09523809523809523], [0.8888888888888888, 0.05555555555555555, 0.05555555555555555], [0.6666666666666666, 0.0, 0.3333333333333333], [0.967741935483871, 0.0, 0.03225806451612903], [1.0, 0.0, 0.0], [0.8333333333333334, 0.0, 0.16666666666666666], [1.0, 0.0, 0.0], [0.25, 0.625, 0.125], [0.0, 0.4375, 0.5625]]}, {"node_count": 73, "children_left": [1, 2, 3, 4, 5, 6, 7, 8, 9, 10, -1, -1, -1, -1, -1, 16, 17, -1, -1, -1, -1, -1, -1, 24, 25, 26, 27, 28, -1, -1, -1, -1, -1, -1, 35, 36, 37, 38, 39, 40, 41, 42, 43, -1, -1, 46, -1, -1, -1, -1, -1, 52, 53, 54, 55, -1, -1, 58, 59, -1, -1, -1, -1, -1, 65, 66, -1, -1, -1, -1, 71, -1, -1], "children_right": [34, 23, 22, 21, 20, 15, 14, 13, 12, 11, -1, -1, -1, -1, -1, 19, 18, -1, -1, -1, -1, -1, -1, 33, 32, 31, 30, 29, -1, -1, -1, -1, -1, -1, 70, 69, 64, 51, 50, 49, 48, 45, 44, -1, -1, 47, -1, -1, -1, -1, -1, 63, 62, 57, 56, -1, -1, 61, 60, -1, -1, -1, -1, -1, 68, 67, -1, -1, -1, -1, 72, -1, -1], "feature": [300, 15, 241, 76, 30, 124, 257, 54, 215, 111, -2, -2, -2, -2, -2, 307, 216, -2, -2, -2, -2, -2, -2, 124, 23, 170, 315, 208, -2, -2, -2, -2, -2, -2, 23, 107, 16, 311, 132, 300, 315, 104, 218, -2, -2, 173, -2, -2, -2, -2, -2, 170, 241, 309, 255, -2, -2, 38, 124, -2, -2, -2, -2, -2, 287, 205, -2, -2, -2, -2, 217, -2, -2], "threshold": [3.5, 0.5, 0.5, 0.5, 0.5, 0.5, 0.5, 0.5, 0.5, 0.5, -2.0, -2.0, -2.0, -2.0, -2.0, 0.5, 0.5, -2.0, -2.0, -2.0, -2.0, -2.0, -2.0, 1.5, 0.5, 0.5, 0.5, 0.5, -2.0, -2.0, -2.0, -2.0, -2.0, -2.0, 0.5, 4.5, 0.5, 0.5, 0.5, 4.5, 0.5, 0.5, 0.5, -2.0, -2.0, 0.5, -2.0, -2.0, -2.0, -2.0, -2.0, 0.5, 0.5, 0.5, 0.5, -2.0, -2.0, 0.5, 0.5, -2.0, -2.0, -2.0, -2.0, -2.0, 0.5, 1.5, -2.0, -2.0, -2.0, -2.0, 4.0, -2.0, -2.0], "value": [[0.3524305555555556, 0.3263888888888889, 0.3211805555555556], [0.1686046511627907, 0.4011627906976744, 0.43023255813953487], [0.15878378378378377, 0.36824324324324326, 0.47297297297297297], [0.15412186379928317, 0.34767025089605735, 0.4982078853046595], [0.137546468401487, 0.36059479553903345, 0.5018587360594795], [0.11811023622047244, 0.38188976377952755, 0.5], [0.13145539906103287, 0.4131455399061033, 0.45539906103286387], [0.135, 0.385, 0.48], [0.11794871794871795, 0.39487179487179486, 0.48717948717948717], [0.12571428571428572, 0.3485714285714286, 0.5257142857142857], [0.145985401459854, 0.38686131386861317, 0.46715328467153283], [0.05263157894736842, 0.21052631578947367, 0.7368421052631579], [0.05, 0.8, 0.15], [0.8, 0.0, 0.2], [0.07692307692307693, 0.8461538461538461, 0.07692307692307693], [0.04878048780487805, 0.21951219512195122, 0.7317073170731707], [0.0, 0.47058823529411764, 0.5294117647058824], [0.0, 0.6363636363636364, 0.36363636363636365], [0.0, 0.16666666666666666, 0.8333333333333334], [0.08333333333333333, 0.041666666666666664, 0.875], [0.4666666666666667, 0.0, 0.5333333333333333], [0.6, 0.0, 0.4], [0.23529411764705882, 0.7058823529411765, 0.058823529411764705], [0.22916666666666666, 0.6041666666666666, 0.16666666666666666], [0.1590909090909091, 0.6590909090909091, 0.18181818181818182], [0.07692307692307693, 0.717948717948718, 0.20512820512820512], [0.08108108108108109, 0.7567567567567568, 0.16216216216216217], [0.11538461538461539, 0.6538461538461539, 0.23076923076923078], [0.05, 0.8, 0.15], [0.3333333333333333, 0.16666666666666666, 0.5], [0.0, 1.0, 0.0], [0.0, 0.0, 1.0], [0.8, 0.2, 0.0], [1.0, 0.0, 0.0], [0.625, 0.21551724137931033, 0.15948275862068967], [0.5952380952380952, 0.23809523809523808, 0.16666666666666666], [0.6067961165048543, 0.22330097087378642, 0.16990291262135923], [0.5617977528089888, 0.24719101123595505, 0.19101123595505617], [0.40540540540540543, 0.35135135135135137, 0.24324324324324326], [0.4666666666666667, 0.3111111111111111, 0.2222222222222222], [0.36619718309859156, 0.36619718309859156, 0.2676056338028169], [0.43859649122807015, 0.2982456140350877, 0.2631578947368421], [0.2, 0.48, 0.32], [0.09090909090909091, 0.5454545454545454, 0.36363636363636365], [1.0, 0.0, 0.0], [0.625, 0.15625, 0.21875], [0.52, 0.2, 0.28], [1.0, 0.0, 0.0], [0.07142857142857142, 0.6428571428571429, 0.2857142857142857], [0.8421052631578947, 0.10526315789473684, 0.05263157894736842], [0.14285714285714285, 0.5238095238095238, 0.3333333333333333], [0.8208955223880597, 0.07462686567164178, 0.1044776119402985], [0.84375, 0.078125, 0.078125], [0.8709677419354839, 0.04838709677419355, 0.08064516129032258], [0.7777777777777778, 0.07407407407407407, 0.14814814814814814], [0.6666666666666666, 0.06666666666666667, 0.26666666666666666], [0.9166666666666666, 0.08333333333333333, 0.0], [0.9428571428571428, 0.02857142857142857, 0.02857142857142857], [0.9696969696969697, 0.030303030303030304, 0.0], [1.0, 0.0, 0.0], [0.9090909090909091, 0.09090909090909091, 0.0], [0.5, 0.0, 0.5], [0.0, 1.0, 0.0], [0.3333333333333333, 0.0, 0.6666666666666666], [0.8928571428571429, 0.07142857142857142, 0.03571428571428571], [0.96, 0.0, 0.04], [1.0, 0.0, 0.0], [0.5, 0.0, 0.5], [0.3333333333333333, 0.6666666666666666, 0.0], [0.0, 1.0, 0.0], [0.9090909090909091, 0.0, 0.09090909090909091], [0.9473684210526315, 0.0, 0.05263157894736842], [0.6666666666666666, 0.0, 0.3333333333333333]]}, {"node_count": 75, "children_left": [1, 2, 3, 4, 5, 6, 7, 8, 9, 10, -1, -1, -1, -1, -1, 16, 17, 18, 19, -1, -1, -1, -1, -1, -1, -1, 27, 28, -1, -1, -1, 32, 33, 34, 35, 36, -1, -1, -1, -1, 41, -1, -1, -1, 45, 46, 47, 48, 49, 50, 51, -1, -1, -1, 55, 56, -1, 58, 59, -1, -1, -1, -1, 64, -1, -1, -1, -1, 69, 70, 71, -1, -1, -1, -1], "children_right": [44, 31, 26, 25, 24, 15, 14, 13, 12, 11, -1, -1, -1, -1, -1, 23, 22, 21, 20, -1, -1, -1, -1, -1, -1, -1, 30, 29, -1, -1, -1, 43, 40, 39, 38, 37, -1, -1, -1, -1, 42, -1, -1, -1, 68, 67, 66, 63, 54, 53, 52, -1, -1, -1, 62, 57, -1, 61, 60, -1, -1, -1, -1, 65, -1, -1, -1, -1, 74, 73, 72, -1, -1, -1, -1], "feature": [300, 311, 229, 213, 162, 111, 145, 21, 142, 219, -2, -2, -2, -2, -2, 272, 126, 237, 297, -2, -2, -2, -2, -2, -2, -2, 215, 202, -2, -2, -2, 178, 306, 120, 181, 167, -2, -2, -2, -2, 6, -2, -2, -2, 114, 198, 181, 130, 310, 163, 315, -2, -2, -2, 24, 302, -2, 274, 35, -2, -2, -2, -2, 103, -2, -2, -2, -2, 210, 205, 310, -2, -2, -2, -2], "threshold": [3.5, 0.5, 0.5, 1.5, 0.5, 0.5, 0.5, 0.5, 0.5, 0.5, -2.0, -2.0, -2.0, -2.0, -2.0, 0.5, 2.0, 0.5, 0.5, -2.0, -2.0, -2.0, -2.0, -2.0, -2.0, -2.0, 0.5, 1.5, -2.0, -2.0, -2.0, 0.5, 0.5, 0.5, 0.5, 0.5, -2.0, -2.0, -2.0, -2.0, 0.5, -2.0, -2.0, -2.0, 0.5, 1.5, 1.5, 0.5, 0.5, 0.5, 0.5, -2.0, -2.0, -2.0, 1.5, 1.5, -2.0, 0.5, 0.5, -2.0, -2.0, -2.0, -2.0, 0.5, -2.0, -2.0, -2.0, -2.0, 0.5, 1.5, 0.5, -2.0, -2.0, -2.0, -2.0], "value": [[0.3159722222222222, 0.3368055555555556, 0.3472222222222222], [0.1574585635359116, 0.4171270718232044, 0.425414364640884], [0.09293680297397769, 0.45353159851301117, 0.45353159851301117], [0.08370044052863436, 0.5066079295154186, 0.40969162995594716], [0.07729468599033816, 0.4782608695652174, 0.4444444444444444], [0.05913978494623656, 0.510752688172043, 0.43010752688172044], [0.04861111111111111, 0.5625, 0.3888888888888889], [0.043478260869565216, 0.5797101449275363, 0.37681159420289856], [0.04580152671755725, 0.6030534351145038, 0.3511450381679389], [0.0390625, 0.6171875, 0.34375], [0.03418803418803419, 0.6581196581196581, 0.3076923076923077], [0.09090909090909091, 0.18181818181818182, 0.7272727272727273], [0.3333333333333333, 0.0, 0.6666666666666666], [0.0, 0.14285714285714285, 0.8571428571428571], [0.16666666666666666, 0.16666666666666666, 0.6666666666666666], [0.09523809523809523, 0.3333333333333333, 0.5714285714285714], [0.10526315789473684, 0.2631578947368421, 0.631578947368421], [0.05555555555555555, 0.2777777777777778, 0.6666666666666666], [0.07407407407407407, 0.37037037037037035, 0.5555555555555556], [0.08695652173913043, 0.2608695652173913, 0.6521739130434783], [0.0, 1.0, 0.0], [0.0, 0.0, 1.0], [1.0, 0.0, 0.0], [0.0, 1.0, 0.0], [0.23809523809523808, 0.19047619047619047, 0.5714285714285714], [0.15, 0.8, 0.05], [0.14285714285714285, 0.16666666666666666, 0.6904761904761905], [0.13333333333333333, 0.03333333333333333, 0.8333333333333334], [0.047619047619047616, 0.0, 0.9523809523809523], [0.3333333333333333, 0.1111111111111111, 0.5555555555555556], [0.16666666666666666, 0.5, 0.3333333333333333], [0.34408602150537637, 0.3118279569892473, 0.34408602150537637], [0.2692307692307692, 0.3333333333333333, 0.3974358974358974], [0.2916666666666667, 0.22916666666666666, 0.4791666666666667], [0.14705882352941177, 0.2647058823529412, 0.5882352941176471], [0.0, 0.3333333333333333, 0.6666666666666666], [0.0, 0.22727272727272727, 0.7727272727272727], [0.0, 0.8, 0.2], [0.7142857142857143, 0.0, 0.2857142857142857], [0.6428571428571429, 0.14285714285714285, 0.21428571428571427], [0.23333333333333334, 0.5, 0.26666666666666666], [0.4375, 0.3125, 0.25], [0.0, 0.7142857142857143, 0.2857142857142857], [0.7333333333333333, 0.2, 0.06666666666666667], [0.5841121495327103, 0.20093457943925233, 0.21495327102803738], [0.7054794520547946, 0.1780821917808219, 0.11643835616438356], [0.7202797202797203, 0.16083916083916083, 0.11888111888111888], [0.7518248175182481, 0.1386861313868613, 0.10948905109489052], [0.6826923076923077, 0.17307692307692307, 0.14423076923076922], [0.42857142857142855, 0.34285714285714286, 0.22857142857142856], [0.4642857142857143, 0.42857142857142855, 0.10714285714285714], [0.6, 0.25, 0.15], [0.125, 0.875, 0.0], [0.2857142857142857, 0.0, 0.7142857142857143], [0.8115942028985508, 0.08695652173913043, 0.10144927536231885], [0.835820895522388, 0.08955223880597014, 0.07462686567164178], [0.42857142857142855, 0.2857142857142857, 0.2857142857142857], [0.8833333333333333, 0.06666666666666667, 0.05], [0.896551724137931, 0.06896551724137931, 0.034482758620689655], 